\data\
ngram 1=37
ngram 2=646
ngram 3=5958

\1-grams:
-2.685294	<unk>	0
0	<s>	-2.6459672
-1.3355308	</s>	0
-1.3355308	I	-1.0258238
-1.4516633	T	-0.7742126
-1.3656673	S	-0.7722793
-1.5840623	J	-0.63937145
-1.3656673	O	-0.9634191
-1.4151975	H	-0.7275724
-1.3980521	N	-0.74506176
-1.3980521	M	-0.75224924
-1.3980521	Y	-0.7283797
-1.381558	A	-1.043253
-1.3656673	E	-1.0077257
-1.3980521	L	-0.7250043
-1.559	V	-0.60377586
-1.3980521	R	-0.70132065
-1.5353053	P	-0.628515
-1.4711125	B	-0.6972847
-1.4516633	D	-0.68877256
-1.559	F	-0.64822483
-1.4711125	K	-0.70826805
-1.5128368	Z	-0.63605773
-1.3980521	U	-0.94645137
-1.5128368	C	-0.7131589
-1.5353053	G	-0.6777093
-1.4330478	W	-0.7511119
-1.7754705	X	-0.42167935
-1.8175318	Q	-0.41248393
-2.4422557	4	-0.34160784
-2.546991	5	-0.34160784
-1.8175318	2	-0.5263567
-2.4422557	3	-0.34160784
-2.546991	9	-0.34160784
-2.4422557	6	-0.34160784
-1.8641078	1	-0.37666288
-2.546991	’	-0.34160784

\2-grams:
-1.3213426	I </s>	0
-1.1398363	T </s>	0
-1.2001569	S </s>	0
-1.7821347	J </s>	0
-1.2586033	O </s>	0
-1.0685312	H </s>	0
-1.2228111	N </s>	0
-1.4414843	M </s>	0
-0.9944325	Y </s>	0
-1.3493127	A </s>	0
-1.318168	E </s>	0
-1.3606054	L </s>	0
-1.4411193	V </s>	0
-1.3438251	R </s>	0
-1.445391	P </s>	0
-1.2981808	B </s>	0
-1.1668043	D </s>	0
-1.4051237	F </s>	0
-1.1015313	K </s>	0
-1.101036	Z </s>	0
-1.2643121	U </s>	0
-1.2296151	C </s>	0
-1.5021634	G </s>	0
-1.2129053	W </s>	0
-0.79187655	X </s>	0
-0.98942953	Q </s>	0
-0.2459894	2 </s>	0
-0.5326413	9 </s>	0
-0.5326413	6 </s>	0
-0.46934065	1 </s>	0
-0.5901276	<s> I	-2.356265
-1.3567748	I I	-1.5805901
-1.0133146	T I	-1.2552699
-1.1308738	S I	-1.9093946
-0.9155667	J I	-0.76407593
-1.2940384	O I	-1.1289934
-0.9930278	H I	-1.8658097
-1.122098	N I	-1.405478
-1.1024528	M I	-1.1920617
-1.0812275	Y I	-1.0226954
-1.3493127	A I	-1.5671191
-1.3362561	E I	-2.2719827
-1.0047601	L I	-1.5326848
-0.82805747	V I	-0.9196879
-1.0080149	R I	-1.427964
-1.007182	P I	-0.72620857
-1.1145303	B I	-1.1866024
-1.0833844	D I	-1.2725955
-1.1743791	F I	-0.6798951
-0.944484	K I	-1.4374002
-0.8966663	Z I	-0.9686059
-1.3237584	U I	-1.0038016
-1.0284514	C I	-0.6953816
-1.0022081	G I	-1.0235803
-0.735897	W I	-0.92576087
-0.9154889	X I	-0.44590062
-1.2595671	Q I	-0.209025
-1.0553534	2 I	-0.209025
-0.5326413	6 I	-0.38963997
-0.93563104	1 I	-0.209025
-0.90045834	<s> T	-2.2813206
-1.3484789	I T	-2.095907
-1.5762491	T T	-0.9066595
-1.2395322	S T	-1.5302057
-1.3437774	O T	-0.940225
-1.3965324	H T	-0.4952429
-1.4158161	N T	-1.157934
-1.4651246	M T	-0.80856216
-1.7773842	Y T	-0.33254242
-1.3951075	A T	-1.5104179
-1.3101441	E T	-1.2888318
-1.6103306	L T	-0.5046289
-1.8262109	V T	-0.38963997
-1.675181	R T	-0.82675344
-1.5934854	P T	-0.35310248
-1.8699111	B T	-0.38964003
-1.6455126	D T	-0.48097128
-1.4328794	F T	-0.5135831
-1.7086153	K T	-0.2758004
-1.3574897	U T	-1.0659889
-1.3019464	C T	-0.51136255
-1.8073132	G T	-0.308191
-1.4273844	X T	-0.26130402
-1.7633561	<s> S	-1.216028
-1.2458861	I S	-2.4400477
-1.4849937	T S	-1.7180469
-1.3529291	S S	-1.5300982
-1.8012269	J S	-0.22597252
-1.3784567	O S	-1.0723134
-1.8765332	H S	-0.23963156
-1.3224698	N S	-0.99674535
-1.4481084	M S	-1.2083185
-1.2609024	Y S	-2.2512026
-1.3520417	A S	-1.534145
-1.3209248	E S	-1.327106
-1.66292	L S	-0.4376012
-1.6659449	V S	-0.26130402
-1.3948365	R S	-0.5488394
-1.7098176	P S	-1.2011306
-1.7800248	B S	-0.5024965
-1.4131026	D S	-0.61213017
-1.7457372	F S	-0.90308774
-1.5714921	K S	-0.6208665
-1.3060924	U S	-1.4085321
-1.8225554	C S	-0.21272992
-1.7642207	G S	-0.2774745
-1.757038	W S	-0.21272992
-1.5652794	X S	-0.29001012
-1.0599228	2 S	-0.209025
-0.5347338	3 S	-0.209025
-0.24854991	’ S	-0.38963997
-1.8959665	<s> J	-1.4405268
-1.5376524	I J	-1.1035843
-2.1016073	S J	-1.6898992
-1.7831606	J J	-0.26130402
-1.6044269	O J	-0.7034101
-1.9956911	H J	-0.26130402
-1.4351395	N J	-1.2317866
-1.6048182	M J	-1.1693237
-2.0314975	Y J	-0.38963997
-1.5386295	A J	-1.1950005
-1.6104829	E J	-0.7488202
-2.1411154	L J	-0.38963997
-1.8275944	R J	-0.3117098
-2.053624	B J	-0.43706632
-1.6836519	D J	-0.38589928
-2.0171242	F J	-1.1073122
-1.5749118	U J	-0.6300523
-2.5792198	<s> O	-0.44911706
-1.5416347	I O	-0.7238466
-0.9941249	T O	-1.0800229
-1.0738218	S O	-1.1068739
-0.88068044	J O	-0.8570157
-1.4789138	O O	-0.5807674
-1.0446595	H O	-1.0030938
-1.2268696	N O	-0.9406242
-1.1754537	M O	-0.9916894
-1.0384021	Y O	-0.7700892
-1.629305	A O	-0.7410756
-1.5212295	E O	-0.766893
-1.0466458	L O	-1.1803629
-0.9877571	V O	-0.5740694
-1.051856	R O	-0.997847
-1.086151	P O	-0.69171554
-0.9884818	B O	-1.0146884
-1.0619584	D O	-1.1450192
-1.0277033	F O	-0.71145326
-1.1048695	K O	-1.1337078
-0.9332154	Z O	-0.53745246
-1.6659821	U O	-0.23344319
-1.1413054	C O	-0.8209454
-1.1054933	G O	-1.1605029
-0.9934673	W O	-0.44614446
-1.0952345	X O	-0.6923388
-0.24854991	5 O	-0.38963997
-1.1393044	1 O	-0.38963997
-2.1826012	<s> H	-1.1341132
-1.4944065	I H	-0.9657339
-1.1787013	T H	-2.1566145
-1.2356069	S H	-1.6450288
-1.8315375	J H	-0.209025
-1.515259	O H	-0.7094005
-1.9938724	H H	-0.2527022
-1.5068024	N H	-0.3677397
-1.6356084	M H	-1.0279922
-1.9349798	Y H	-0.38963997
-1.37376	A H	-1.3353328
-1.5278591	E H	-0.79383665
-1.6001259	L H	-0.65455025
-1.8043317	V H	-0.209025
-1.3588396	R H	-0.5537323
-0.9501455	P H	-1.1454035
-1.5389887	B H	-0.5252132
-1.3717705	D H	-0.78955543
-1.3516351	F H	-0.80818623
-1.2624134	K H	-0.7779592
-1.4860647	U H	-0.92898136
-0.97449154	C H	-1.6870785
-1.2437377	G H	-0.6591277
-1.7198949	W H	-0.209025
-1.4139702	X H	-0.38964003
-0.8492693	<s> N	-2.0637667
-1.3442599	I N	-1.6288837
-1.3286445	T N	-0.73895335
-1.5331379	S N	-1.2956684
-1.8211972	J N	-0.38963997
-1.2470506	O N	-1.5131795
-1.4486227	H N	-0.42969245
-1.5029356	N N	-1.1705345
-1.409163	M N	-0.8648348
-1.1976664	Y N	-2.5275817
-1.3379333	A N	-1.83825
-1.3061162	E N	-1.5621288
-1.5951122	L N	-0.5794395
-1.6817439	V N	-0.556972
-1.656594	R N	-0.78612804
-1.4633988	P N	-0.5537322
-1.9342089	B N	-0.209025
-1.4202888	D N	-0.5446383
-1.5078634	F N	-0.76955616
-1.8735806	K N	-0.38964003
-1.7341835	Z N	-0.21521755
-1.289117	U N	-1.2278976
-1.8402066	C N	-0.209025
-1.6314826	G N	-0.7381567
-1.713683	W N	-0.35885796
-1.5844092	X N	-0.38963997
-0.5439922	<s> M	-2.1348042
-1.3442599	I M	-1.2369652
-1.8994228	T M	-0.30236775
-1.5331379	S M	-1.9676245
-1.7061566	J M	-0.29423162
-1.2998344	O M	-1.0912302
-1.5201564	H M	-0.5471371
-1.9252386	N M	-0.21272992
-1.3678403	M M	-1.1267792
-1.6546013	Y M	-0.43471503
-1.3547881	A M	-2.377736
-1.3420241	E M	-1.2702976
-1.5278511	L M	-0.8170937
-1.7533888	R M	-0.48934996
-1.7707891	P M	-0.26130402
-1.9342089	B M	-0.38963997
-1.7267002	D M	-0.27095565
-1.8946564	F M	-1.0417686
-1.8320123	K M	-0.29001012
-1.840694	Z M	-0.209025
-1.2699392	U M	-1.12237
-1.9384418	C M	-0.209025
-1.5204949	G M	-0.2937305
-1.2281426	X M	-0.30459654
-1.4387168	Q M	-0.38963997
-0.5368363	4 M	-0.209025
-3.0661507	<s> Y	-0.37755653
-1.4679121	I Y	-1.0807712
-1.376567	T Y	-0.9374461
-1.3580791	S Y	-0.988586
-1.8211972	J Y	-0.38963997
-1.4556956	O Y	-0.74976623
-1.3334365	H Y	-0.545972
-1.2608452	N Y	-1.5925883
-1.5058808	M Y	-2.6216443
-1.6546013	Y Y	-0.2774745
-1.4096726	A Y	-1.2077941
-1.3611565	E Y	-1.1205441
-1.1413926	L Y	-1.0694596
-1.4600153	V Y	-0.3221082
-1.1254411	R Y	-1.1360912
-1.2377651	P Y	-0.33455977
-1.0851362	B Y	-0.5800733
-1.1447989	D Y	-1.134973
-1.2861314	F Y	-0.54651743
-1.3079866	K Y	-0.6857081
-1.1656535	Z Y	-0.59155333
-1.4002305	U Y	-0.93445134
-1.2385384	C Y	-0.6599153
-1.2960789	G Y	-0.78420275
-1.5296208	W Y	-0.48097128
-1.4074155	X Y	-0.38964003
-1.4813195	<s> A	-1.2036837
-1.3428625	I A	-1.9717889
-0.9746794	T A	-1.2510734
-1.1576334	S A	-1.685187
-0.78549296	J A	-1.123887
-1.4811226	O A	-0.48317108
-0.93194413	H A	-1.5000901
-1.0636086	N A	-2.2739332
-1.02813	M A	-1.7271434
-0.9602031	Y A	-1.3278518
-1.4937525	A A	-0.6308243
-1.3795851	E A	-0.82766145
-1.0278904	L A	-1.5703603
-0.76983374	V A	-1.0457042
-0.97445565	R A	-1.3415294
-1.0120323	P A	-0.8375574
-0.9625761	B A	-1.3645363
-0.99649376	D A	-1.3150243
-0.99840105	F A	-1.1257113
-0.99467945	K A	-1.5142161
-0.9345501	Z A	-1.0182465
-1.3285934	U A	-0.6078743
-1.0326399	C A	-1.0277362
-0.9774884	G A	-1.3554442
-0.6706308	W A	-1.4844835
-0.9218225	X A	-0.3903213
-0.9971112	Q A	-0.3625885
-1.9535998	<s> E	-0.85191226
-1.4193286	I E	-1.0632092
-1.1429679	T E	-1.1449418
-1.0929557	S E	-1.8566018
-0.88068044	J E	-1.0777965
-1.6938524	O E	-0.54071575
-1.0446595	H E	-1.2008364
-1.1032447	N E	-1.2462376
-1.2589157	M E	-2.2437923
-1.06073	Y E	-0.8162602
-1.4065578	A E	-0.82103693
-1.4437398	E E	-0.8224827
-1.0265422	L E	-1.4306555
-0.7984966	V E	-1.1463042
-1.0107479	R E	-1.2209699
-0.9769775	P E	-0.8913486
-0.9357942	B E	-1.2941244
-1.1409733	D E	-1.1945482
-1.1359007	F E	-0.8779023
-1.1048695	K E	-0.9407536
-0.83804977	Z E	-0.67379546
-1.5106171	U E	-0.8382997
-1.0312393	C E	-1.0283576
-0.9235389	G E	-1.0735189
-0.6498207	W E	-1.0612886
-1.3945954	X E	-0.29001012
-1.4246637	Q E	-0.38963997
-0.5347338	4 E	-0.38963997
-1.7857425	<s> L	-1.4035432
-1.3442599	I L	-1.51279
-1.6495596	T L	-0.36786568
-1.4823292	S L	-1.6641027
-1.8211972	J L	-0.3401563
-1.2998344	O L	-1.206063
-1.4486227	H L	-0.4703229
-1.8017625	N L	-0.50857913
-1.454835	M L	-1.2943988
-1.2302645	Y L	-0.75117815
-1.3723234	A L	-1.5676305
-1.3061162	E L	-1.9577509
-1.3308713	L L	-1.3329403
-1.793792	V L	-0.209025
-1.656594	R L	-0.678671
-1.3007835	P L	-0.24429068
-1.2540791	B L	-0.95167226
-1.4790454	D L	-0.4080501
-1.2317944	F L	-1.1067134
-1.2600118	K L	-0.7766221
-1.840694	Z L	-0.209025
-1.2339511	U L	-1.2997589
-1.1047359	C L	-0.9621111
-1.3588179	G L	-0.6277442
-1.8979008	W L	-0.2527022
-1.2103696	Q L	-0.26130402
-2.5850236	<s> V	-0.8160625
-1.508475	I V	-1.035492
-2.0874884	S V	-0.99241096
-1.4727333	O V	-1.034847
-2.0908165	H V	-0.38963997
-2.058602	N V	-0.209025
-1.7611144	M V	-0.65653527
-1.9721472	Y V	-0.21272992
-1.4429189	A V	-0.92602
-1.4384624	E V	-1.0811834
-1.6369431	L V	-0.8240107
-1.7514023	V V	-0.34961224
-1.8186948	R V	-0.5017914
-2.0824628	D V	-0.45189163
-2.001682	F V	-0.56200504
-2.0688424	K V	-0.38963997
-1.7567877	U V	-0.50883543
-1.6706644	X V	-0.38963997
-2.1627724	<s> R	-1.0471032
-1.3816972	I R	-1.2095357
-1.2462358	T R	-1.0232724
-1.7354056	S R	-1.2759297
-1.7061566	J R	-0.6506422
-1.2998344	O R	-1.1325178
-1.2855842	H R	-0.97347486
-1.9252386	N R	-0.35498163
-1.5058808	M R	-0.8776301
-1.6546013	Y R	-0.2982296
-1.3547881	A R	-1.4329004
-1.3236991	E R	-1.4378723
-1.7723054	L R	-0.4017002
-1.793792	V R	-0.209025
-1.5774897	R R	-0.9339837
-1.2377651	P R	-0.8903847
-1.2052963	B R	-1.0780146
-1.2424185	D R	-0.9575901
-0.9709515	F R	-1.1683276
-1.2600118	K R	-0.96703875
-1.6846745	Z R	-0.43253434
-1.309181	U R	-1.1116959
-1.3580393	C R	-1.0100943
-1.1488552	G R	-0.9330008
-1.8979008	W R	-0.26130402
-1.4387168	Q R	-0.209025
-2.424098	<s> P	-0.77435136
-1.5064371	I P	-0.9718775
-2.0160425	T P	-0.26130402
-1.3405509	S P	-1.2215095
-1.7648301	J P	-0.38963997
-1.3718202	O P	-0.7602519
-2.0755706	H P	-0.38963997
-1.8589964	N P	-0.22982553
-1.4310642	M P	-0.9648919
-1.6962428	Y P	-0.8460776
-1.4627292	A P	-0.9710074
-1.5127724	E P	-0.77344686
-1.6314886	L P	-1.0718818
-1.7012696	R P	-0.21107943
-1.4968293	P P	-0.5337732
-1.9741881	D P	-0.38963997
-1.9867702	F P	-0.49695784
-1.5333835	U P	-0.76814115
-1.6588981	X P	-0.43706632
-1.8558172	<s> B	-1.2247629
-1.3878425	I B	-1.146826
-2.0781114	T B	-0.38963997
-1.6781766	S B	-1.5366484
-1.8641235	J B	-0.209025
-1.3666856	O B	-0.9355335
-1.8923503	H B	-0.2136611
-1.967994	N B	-0.26130402
-1.4215425	M B	-1.7279174
-1.5204495	Y B	-0.38973635
-1.4159703	A B	-1.4208629
-1.431272	E B	-0.7893568
-1.6993717	L B	-0.70716417
-1.7848154	R B	-0.5543103
-1.8098056	P B	-0.38963997
-1.5532275	B B	-0.56212837
-1.8966277	D B	-0.34961224
-1.9448806	F B	-0.94589275
-1.9148269	K B	-0.209025
-1.7158432	Z B	-0.34961224
-1.4079438	U B	-0.9876363
-1.8642795	G B	-0.3401563
-1.9892461	<s> D	-1.1661776
-1.366977	I D	-1.2411512
-1.5449251	S D	-1.3442281
-1.7303387	J D	-0.2563679
-1.3437774	O D	-0.8490473
-1.8826349	H D	-0.23764977
-1.2371848	N D	-1.6744429
-1.6460108	M D	-1.0550674
-1.6719613	Y D	-0.41349724
-1.3419267	A D	-1.3160118
-1.346401	E D	-1.067919
-1.5408529	L D	-0.78002596
-1.6520828	V D	-0.38964003
-1.5929258	R D	-1.0383286
-1.8227257	B D	-1.02377
-1.561815	D D	-0.55536216
-1.9317696	F D	-0.91496265
-1.9978645	K D	-0.209025
-1.7602305	Z D	-0.29001012
-1.3574897	U D	-1.0131278
-1.9737173	C D	-0.38963997
-1.8540701	G D	-0.5008912
-1.6147832	X D	-0.3401563
-2.487158	<s> F	-0.6790775
-1.508475	I F	-0.8882772
-2.0279362	T F	-0.28216434
-1.8974944	S F	-0.92385525
-1.7738986	J F	-0.26130402
-1.7853359	O F	-0.5667768
-1.7680486	H F	-0.4229793
-1.5972898	N F	-0.47951502
-1.6000568	M F	-0.62377006
-2.018193	Y F	-0.4287935
-1.5111696	A F	-0.88513744
-1.5149286	E F	-0.67018956
-1.8368429	L F	-1.7294996
-1.9675472	R F	-0.27095565
-1.7897545	D F	-0.3208126
-1.5486495	F F	-0.5494532
-2.0688424	K F	-0.209025
-1.4717478	U F	-0.7050141
-1.564915	<s> K	-1.4696851
-1.3878425	I K	-1.261317
-1.9821993	T K	-0.3401563
-1.4963461	S K	-1.7835104
-1.8641235	J K	-0.209025
-1.3057088	O K	-1.0860907
-1.9374543	H K	-0.38963997
-1.4659448	N K	-0.8644546
-1.4215425	M K	-1.3455245
-1.9687109	Y K	-0.38963997
-1.3780986	A K	-1.390478
-1.45489	E K	-1.0707537
-1.6993717	L K	-0.7741078
-1.715178	V K	-0.38964003
-1.7848154	R K	-0.5460743
-1.8317938	B K	-0.4229793
-1.9369212	D K	-0.23963156
-1.9448806	F K	-1.2441604
-1.5121276	K K	-0.28855845
-1.8860604	Z K	-0.38963997
-1.3367732	U K	-1.1307595
-1.111412	C K	-1.0548935
-2.8558028	<s> Z	-0.54651743
-1.411392	I Z	-0.9885632
-2.1060615	T Z	-0.38963997
-2.0605571	S Z	-0.9048589
-1.8872902	J Z	-0.26130402
-1.4684107	O Z	-0.7445235
-2.0608418	H Z	-0.38963997
-1.4730736	N Z	-1.1748585
-1.5906878	M Z	-0.8099783
-2.0842588	Y Z	-0.209025
-1.4395571	A Z	-1.1248672
-1.4586712	E Z	-0.86012745
-2.0046854	L Z	-0.38964003
-1.9845709	R Z	-0.209025
-2.0100675	B Z	-0.38963997
-1.9188874	D Z	-0.31719306
-1.9723533	F Z	-0.2814673
-2.0390453	K Z	-0.38963997
-1.4251615	Z Z	-0.35084245
-1.467264	U Z	-0.7181585
-3.1505423	<s> U	-0.23344319
-1.4924334	I U	-0.9793279
-1.0648183	T U	-0.913915
-1.3956797	S U	-0.71436274
-0.92067593	J U	-0.8099941
-1.4833426	O U	-0.55410075
-1.0220319	H U	-0.9257143
-1.2608452	N U	-0.84934664
-1.2333283	M U	-1.093393
-1.1390036	Y U	-0.6608848
-1.3905966	A U	-1.0063443
-1.497972	E U	-0.6150715
-1.1958536	L U	-1.1739018
-1.0989981	V U	-0.5294208
-1.1517615	R U	-0.971112
-1.2377651	P U	-0.51311433
-1.1216162	B U	-1.0962125
-1.2073834	D U	-0.93290216
-0.9999093	F U	-0.80415696
-1.141499	K U	-0.97060716
-1.1089526	Z U	-0.6004771
-1.5499254	U U	-0.6557828
-1.4329188	C U	-0.41520125
-1.0726969	G U	-0.9625991
-1.7708869	W U	-0.23963156
-0.5340578	Q U	-0.6458539
-1.8973378	<s> C	-1.2790477
-1.411392	I C	-1.1875062
-1.9568772	T C	-0.23764977
-1.5035279	S C	-1.4737699
-1.4684107	O C	-0.6338376
-2.0608418	H C	-0.38963997
-1.4253703	N C	-0.9436359
-1.5293788	M C	-1.1740918
-1.8005698	Y C	-0.5208866
-1.4395571	A C	-1.0635638
-1.4586712	E C	-0.7381234
-1.7122353	L C	-0.40591678
-1.6752303	V C	-0.21521755
-1.694599	R C	-0.44147384
-1.9188874	D C	-0.23963156
-1.8676816	F C	-1.0222173
-2.0390453	K C	-0.38963997
-1.7879398	Z C	-0.21521755
-1.5307941	U C	-0.61278105
-1.845471	C C	-0.2937305
-2.3072534	<s> G	-0.80266327
-1.4130286	I G	-1.1658673
-2.1207411	T G	-0.38963997
-2.0738142	S G	-1.0280483
-1.3944826	O G	-1.006977
-2.0755706	H G	-0.38963997
-1.3853186	N G	-1.6949689
-1.5334218	M G	-0.89254326
-1.8085817	Y G	-0.3299461
-1.4412347	A G	-1.3645701
-1.4139819	E G	-1.0595117
-1.6314886	L G	-0.40314126
-1.809974	R G	-0.46536922
-1.8415555	P G	-0.209025
-2.0241065	B G	-0.21272992
-1.6705631	D G	-0.39114165
-1.9867702	F G	-0.48836535
-1.3644743	U G	-1.1813273
-1.675996	G G	-0.35122758
-2.8213446	<s> W	-0.5453207
-1.522623	I W	-0.938278
-1.2139239	T W	-0.9019234
-1.3632909	S W	-1.3560975
-1.3640919	J W	-0.5321238
-1.5497084	O W	-0.74746346
-1.4557543	H W	-0.5162475
-1.6375101	N W	-0.7713529
-1.4616675	M W	-1.835923
-2.0271597	Y W	-0.21272992
-1.4761385	A W	-1.0535574
-1.5920266	E W	-0.7902155
-1.3783951	L W	-1.2333902
-1.4083216	R W	-0.79879415
-1.7435197	P W	-0.45669916
-1.2096491	B W	-1.2866356
-1.4874214	D W	-0.9541014
-1.780774	F W	-0.62776554
-1.2648283	K W	-1.3546319
-1.6999793	Z W	-0.5162475
-1.4883999	U W	-0.9422163
-1.1970317	G W	-1.4684747
-1.6044207	X W	-0.3401563
-1.4532397	Q W	-0.38963997
-4.1842666	<s> X	-0.38963997
-2.025494	I X	-0.29060638
-2.1429596	S X	-0.9244937
-2.058741	O X	-0.24763258
-2.1133885	N X	-0.209025
-1.908106	A X	-0.30707598
-1.8023264	E X	-0.6510615
-2.261515	L X	-0.38963997
-1.9923755	K X	-0.23963156
-2.329725	U X	-0.29001012
-2.153161	C X	-0.38963997
-4.0797954	<s> Q	-0.38963997
-2.0322642	I Q	-0.36551234
-2.159038	S Q	-0.59526163
-2.3176777	M Q	-0.21521755
-2.2721977	Y Q	-0.38963997
-2.156669	A Q	-0.5024965
-2.109632	E Q	-0.29191115
-2.144022	F Q	-0.23963156
-2.4020112	U Q	-0.34961224
-2.0153294	C Q	-0.23963156
-2.89311	A 4	-0.209025
-2.8468947	E 4	-0.38963997
-2.8282788	O 5	-0.38963997
-2.4345613	I 2	-0.26130402
-2.1370218	T 2	-0.209025
-2.341809	S 2	-0.38963997
-2.4269156	O 2	-0.209025
-2.138159	Y 2	-0.3401563
-2.059492	A 2	-0.60488474
-2.469929	E 2	-0.26130402
-2.2852771	L 2	-0.38963997
-2.2139745	K 2	-0.38963997
-2.5249815	U 2	-0.38963997
-2.89311	A 3	-0.38963997
-2.7767196	U 3	-0.209025
-2.6207647	O 9	-0.38963997
-0.5623361	9 6	-0.38963997
-1.2519871	1 6	-0.38963997
-2.367505	S 1	-0.38963997
-2.4469147	O 1	-0.38963997
-2.6595821	A 1	-0.38963997
-2.3104153	L 1	-0.38963997
-2.2908032	R 1	-0.38963997
-2.266159	D 1	-0.38963997
-2.2360675	K 1	-0.38963997
-0.5551319	3 1	-0.38963997
-1.2203726	1 1	-0.38963997
-2.5281725	R ’	-0.38963997

\3-grams:
-1.3995638	I I </s>
-0.56461775	T I </s>
-1.1039538	S I </s>
-0.47645518	J I </s>
-1.2886596	O I </s>
-1.5909286	H I </s>
-0.43360773	N I </s>
-0.9696379	M I </s>
-0.74401313	Y I </s>
-1.3146374	A I </s>
-2.488049	E I </s>
-0.73812556	L I </s>
-1.135932	V I </s>
-0.88437456	R I </s>
-1.3094246	P I </s>
-0.74746984	B I </s>
-0.57606876	D I </s>
-1.2914071	F I </s>
-0.9255182	K I </s>
-0.4711141	Z I </s>
-1.7250154	U I </s>
-1.2265359	C I </s>
-0.67028004	G I </s>
-1.0086442	W I </s>
-0.98303854	X I </s>
-2.1585033	I T </s>
-1.1118633	T T </s>
-1.4240737	S T </s>
-1.1682781	O T </s>
-1.0693791	H T </s>
-0.9739869	N T </s>
-1.0577779	Y T </s>
-1.1837952	A T </s>
-1.0394685	E T </s>
-1.1058253	L T </s>
-0.5306833	R T </s>
-1.2096579	F T </s>
-0.94003284	K T </s>
-1.8014767	U T </s>
-1.2532107	C T </s>
-2.1973944	I S </s>
-2.6065755	T S </s>
-1.0864084	S S </s>
-1.3308572	O S </s>
-1.0540999	N S </s>
-1.5482278	M S </s>
-2.4869626	Y S </s>
-0.92926556	A S </s>
-0.8349756	E S </s>
-1.0608875	L S </s>
-0.5387466	V S </s>
-0.8557733	R S </s>
-0.42642486	U S </s>
-0.5636659	C S </s>
-0.8463603	G S </s>
-0.71793455	W S </s>
-0.7437216	X S </s>
-2.2047284	A J </s>
-0.660652	I O </s>
-0.62079	T O </s>
-1.1693478	S O </s>
-1.3278856	J O </s>
-0.49648482	O O </s>
-0.8884492	H O </s>
-0.5130362	N O </s>
-0.84980786	M O </s>
-0.58862025	Y O </s>
-0.20589638	A O </s>
-0.7508897	E O </s>
-0.5939713	L O </s>
-1.1758394	V O </s>
-0.5928426	R O </s>
-0.70778567	P O </s>
-0.40947092	B O </s>
-0.70221734	D O </s>
-1.7544676	F O </s>
-0.63708025	K O </s>
-0.44898042	Z O </s>
-0.93575424	U O </s>
-0.8597168	C O </s>
-0.46338138	G O </s>
-0.60600054	W O </s>
-0.21129455	5 O </s>
-1.567879	I H </s>
-1.3273891	T H </s>
-1.7679607	S H </s>
-1.0578501	O H </s>
-0.99247	N H </s>
-0.50336444	A H </s>
-0.6709303	E H </s>
-0.93911207	L H </s>
-1.313882	R H </s>
-1.1849194	P H </s>
-1.5308053	D H </s>
-1.6471041	F H </s>
-1.6484718	K H </s>
-1.5359168	U H </s>
-1.8196925	C H </s>
-0.6194925	G H </s>
-0.9337398	I N </s>
-1.5832424	T N </s>
-2.3855975	S N </s>
-0.64016384	O N </s>
-1.0124874	H N </s>
-1.0043164	N N </s>
-1.9447442	M N </s>
-2.130533	Y N </s>
-0.9410575	A N </s>
-0.99505365	E N </s>
-0.54433197	L N </s>
-1.169123	R N </s>
-1.5129697	U N </s>
-0.642053	C N </s>
-0.40268648	W N </s>
-1.1046939	I M </s>
-2.943914	S M </s>
-1.8190625	O M </s>
-1.5495446	H M </s>
-2.2995636	A M </s>
-1.417334	E M </s>
-1.688361	L M </s>
-1.4659975	R M </s>
-1.2386519	U M </s>
-1.0107994	I Y </s>
-0.12568407	T Y </s>
-0.37321493	S Y </s>
-0.66207486	O Y </s>
-0.52111095	H Y </s>
-0.84157526	N Y </s>
-2.5325615	M Y </s>
-0.85987055	Y Y </s>
-0.81245285	A Y </s>
-0.2882658	E Y </s>
-0.47746038	L Y </s>
-0.53818196	V Y </s>
-0.21606621	R Y </s>
-0.65897655	P Y </s>
-0.6946011	B Y </s>
-0.16627596	D Y </s>
-0.49397507	F Y </s>
-0.6007251	K Y </s>
-0.25557145	Z Y </s>
-0.28923818	C Y </s>
-1.1098363	G Y </s>
-0.62210184	X Y </s>
-0.9730718	I A </s>
-0.3838694	T A </s>
-1.0495236	S A </s>
-0.7030007	J A </s>
-0.97695786	O A </s>
-0.75891924	H A </s>
-1.1756392	N A </s>
-0.94485897	M A </s>
-0.4307746	Y A </s>
-0.49418616	A A </s>
-0.6537165	E A </s>
-0.42537394	L A </s>
-0.6106392	V A </s>
-0.52223533	R A </s>
-0.7747857	P A </s>
-0.65589017	B A </s>
-0.36607778	D A </s>
-0.96877825	F A </s>
-0.70098686	K A </s>
-0.42628738	Z A </s>
-0.53263843	U A </s>
-0.8231039	C A </s>
-0.4060166	G A </s>
-0.56980264	W A </s>
-1.1735468	X A </s>
-0.37038714	I E </s>
-0.65960413	T E </s>
-1.7211072	S E </s>
-0.9853101	J E </s>
-0.9092864	O E </s>
-1.1455009	H E </s>
-0.55581963	N E </s>
-0.49400884	M E </s>
-0.43221027	Y E </s>
-0.8721615	A E </s>
-0.50894165	E E </s>
-0.55133903	L E </s>
-1.0489339	V E </s>
-0.9811653	R E </s>
-0.9825633	P E </s>
-0.856482	B E </s>
-0.8498695	D E </s>
-1.4086614	F E </s>
-0.69973356	K E </s>
-0.82312125	Z E </s>
-0.9310926	U E </s>
-0.29055265	C E </s>
-0.59285414	G E </s>
-0.52071613	W E </s>
-1.4987212	I L </s>
-1.8222653	O L </s>
-1.0013777	Y L </s>
-1.4370106	A L </s>
-1.4560587	E L </s>
-1.0298504	L L </s>
-0.3883219	V L </s>
-1.5614167	R L </s>
-1.3901243	D L </s>
-1.6146241	U L </s>
-1.8798028	I V </s>
-1.9511739	A V </s>
-2.0537274	E V </s>
-1.709235	L V </s>
-1.2170688	I R </s>
-2.2874808	S R </s>
-1.3118166	O R </s>
-1.9849969	H R </s>
-1.0773919	N R </s>
-1.1408861	A R </s>
-0.7569376	E R </s>
-1.3085675	L R </s>
-1.9031744	R R </s>
-1.2549098	U R </s>
-1.4369702	I P </s>
-0.78863597	J P </s>
-0.216881	H P </s>
-2.032165	A P </s>
-0.9708221	R P </s>
-2.22023	I B </s>
-1.359467	O B </s>
-0.8986759	H B </s>
-2.8085012	M B </s>
-1.977135	A B </s>
-1.8641933	E B </s>
-1.3732256	R B </s>
-1.7148	U B </s>
-1.153684	I D </s>
-0.912382	J D </s>
-0.958353	O D </s>
-0.7779492	H D </s>
-1.5116264	N D </s>
-1.2525997	Y D </s>
-1.2149827	A D </s>
-0.93722594	E D </s>
-0.44598296	L D </s>
-0.27383348	R D </s>
-1.8730958	B D </s>
-1.3228258	D D </s>
-0.6460097	Z D </s>
-0.9607095	U D </s>
-1.3716466	I F </s>
-1.9723483	S F </s>
-1.5583515	O F </s>
-1.5763943	A F </s>
-1.3930668	E F </s>
-1.5930818	U F </s>
-1.2944175	I K </s>
-1.2869898	O K </s>
-1.3120723	N K </s>
-2.3048594	M K </s>
-0.48357946	Y K </s>
-1.643295	A K </s>
-1.3225939	E K </s>
-1.4718663	L K </s>
-0.50425	R K </s>
-0.9411976	B K </s>
-0.78504235	D K </s>
-0.20442995	Z K </s>
-1.6570016	U K </s>
-0.4326341	C K </s>
-1.465231	I Z </s>
-0.20440434	T Z </s>
-1.1264542	O Z </s>
-1.6761184	N Z </s>
-1.4893167	A Z </s>
-1.3667444	E Z </s>
-0.63877034	L Z </s>
-1.0402325	Z Z </s>
-1.6170397	U Z </s>
-1.5087354	I U </s>
-0.8930691	T U </s>
-1.0998064	S U </s>
-1.4036632	J U </s>
-1.3472836	O U </s>
-1.0678179	H U </s>
-1.0788326	N U </s>
-0.6444673	M U </s>
-0.7972181	Y U </s>
-1.1100116	A U </s>
-1.1623013	E U </s>
-1.0015128	L U </s>
-0.54703116	V U </s>
-0.62500095	R U </s>
-1.0065444	P U </s>
-0.9379192	B U </s>
-0.7175766	D U </s>
-0.60253364	F U </s>
-0.94410664	K U </s>
-0.95115745	Z U </s>
-0.18117243	U U </s>
-0.7140009	G U </s>
-1.5481275	Q U </s>
-1.4377698	I C </s>
-1.229051	O C </s>
-1.6351252	N C </s>
-2.142575	M C </s>
-1.3824384	Y C </s>
-1.8384949	A C </s>
-1.1159295	E C </s>
-0.21019983	K C </s>
-1.3470702	U C </s>
-2.2013426	I G </s>
-1.7775335	N G </s>
-1.880245	A G </s>
-2.2031107	E G </s>
-0.67684126	P G </s>
-1.6971107	I W </s>
-1.6929666	T W </s>
-1.6174687	O W </s>
-2.0192413	A W </s>
-1.0421741	E W </s>
-1.4532217	R W </s>
-2.1579216	K W </s>
-0.61741126	I X </s>
-0.09479533	S X </s>
-0.7286022	O X </s>
-0.53640234	N X </s>
-0.7692003	A X </s>
-0.46802914	E X </s>
-0.44131547	L X </s>
-0.60940117	K X </s>
-0.63660187	U X </s>
-0.95871764	I Q </s>
-1.0651987	A Q </s>
-0.38261187	E Q </s>
-0.6740341	C Q </s>
-0.24745917	I 2 </s>
-0.1350386	T 2 </s>
-0.08423845	S 2 </s>
-0.1350386	O 2 </s>
-0.09560518	Y 2 </s>
-0.08260928	A 2 </s>
-0.24745917	E 2 </s>
-0.08423845	L 2 </s>
-0.08423845	U 2 </s>
-0.3811808	O 9 </s>
-0.14759414	1 6 </s>
-0.3620065	O 1 </s>
-0.13629377	A 1 </s>
-0.13629377	L 1 </s>
-0.13629377	R 1 </s>
-0.13629377	D 1 </s>
-2.4030726	I I I
-1.3640678	T I I
-1.9260201	S I I
-1.1529534	J I I
-1.9520669	O I I
-2.2732744	H I I
-1.2089565	N I I
-2.0405037	M I I
-1.4440278	Y I I
-2.2004077	A I I
-3.084776	E I I
-1.5995045	L I I
-1.99244	V I I
-1.4647263	R I I
-1.5169483	B I I
-1.404366	D I I
-1.8451533	F I I
-1.7866713	K I I
-1.2961488	Z I I
-2.0305536	U I I
-1.6959292	C I I
-1.4984956	G I I
-1.80636	W I I
-2.377368	<s> T I
-1.5129259	I T I
-1.0951167	T T I
-0.633416	S T I
-0.7579915	O T I
-0.6832806	H T I
-0.56461656	N T I
-0.90056914	M T I
-1.0046266	Y T I
-0.67929465	A T I
-0.8487403	E T I
-1.218949	L T I
-0.79417807	R T I
-0.6253101	B T I
-0.9743794	D T I
-1.2921039	F T I
-0.7730876	K T I
-0.87798715	U T I
-1.2864616	C T I
-0.74358344	X T I
-0.863378	<s> S I
-0.6965869	I S I
-1.5809493	T S I
-0.8406738	S S I
-0.9194689	J S I
-0.74203396	O S I
-0.7090398	H S I
-0.6139776	N S I
-0.92618424	M S I
-2.7696187	Y S I
-0.6533738	A S I
-0.68298376	E S I
-0.6807931	L S I
-0.84627277	R S I
-1.3887904	D S I
-1.0591081	F S I
-1.3559769	K S I
-0.65689737	U S I
-0.9077551	G S I
-0.73045874	X S I
-1.3893118	<s> J I
-0.85274315	I J I
-1.4402822	S J I
-1.0737259	O J I
-0.77347237	N J I
-1.4364295	M J I
-0.5033132	A J I
-0.9086099	E J I
-0.92634404	R J I
-1.2206807	D J I
-1.0560971	F J I
-0.50193214	U J I
-1.355774	I O I
-1.4187204	T O I
-1.6072932	S O I
-1.3334689	J O I
-1.195893	O O I
-1.6221471	H O I
-1.3459096	N O I
-1.4359189	M O I
-1.0584921	Y O I
-1.2483567	A O I
-1.4702104	E O I
-1.2077087	L O I
-1.5837965	V O I
-1.271195	R O I
-1.1270493	B O I
-1.6344972	D O I
-1.7756912	F O I
-1.4210675	K O I
-1.5317382	Z O I
-1.1427304	U O I
-1.9242893	C O I
-1.2382379	G O I
-1.471315	W O I
-1.4027797	<s> H I
-1.064599	I H I
-0.07831536	T H I
-0.7244178	S H I
-1.1986127	O H I
-0.6579453	N H I
-0.77586186	M H I
-0.72184277	A H I
-1.0538434	L H I
-0.69413096	R H I
-0.744056	P H I
-1.1198599	B H I
-0.4118843	D H I
-1.0915313	F H I
-1.3268428	K H I
-0.8384597	U H I
-0.56750345	C H I
-1.4657902	G H I
-0.5954951	W H I
-2.2166362	<s> N I
-1.0021396	I N I
-1.158199	T N I
-1.1659633	S N I
-0.69820315	O N I
-0.9872684	H N I
-0.7398491	N N I
-1.2246158	M N I
-2.9102573	Y N I
-0.8651238	A N I
-0.9064454	E N I
-0.6958963	L N I
-1.1262054	V N I
-1.2486221	R N I
-1.2237144	D N I
-1.1474766	F N I
-1.0058293	U N I
-1.4234244	G N I
-0.932645	W N I
-2.1454048	<s> M I
-0.88659257	I M I
-1.7775495	S M I
-0.7289628	J M I
-0.8307084	O M I
-1.3414063	H M I
-1.1137108	M M I
-1.231783	Y M I
-1.6873957	A M I
-0.8282601	E M I
-1.626195	L M I
-1.2212914	R M I
-0.93419737	D M I
-1.2998605	F M I
-0.6354167	K M I
-0.6201126	Z M I
-1.0740247	U M I
-0.3656934	C M I
-0.45655406	X M I
-0.3656934	4 M I
-1.404319	I Y I
-1.0177629	T Y I
-1.1555146	S Y I
-1.0483285	O Y I
-0.84299135	N Y I
-3.4502077	M Y I
-1.1700474	A Y I
-0.89197004	E Y I
-1.1517913	L Y I
-0.9775089	V Y I
-1.1131065	R Y I
-1.1108869	P Y I
-0.9547167	B Y I
-1.0593479	D Y I
-1.293697	F Y I
-1.4576118	K Y I
-1.7084538	U Y I
-0.63592935	X Y I
-1.3525143	<s> A I
-1.6927948	I A I
-1.1713364	T A I
-1.2652615	S A I
-1.556635	J A I
-0.97695786	O A I
-1.3057518	H A I
-1.8708594	N A I
-1.3893776	M A I
-1.2297115	Y A I
-1.511874	A A I
-1.1357563	E A I
-0.9315869	L A I
-1.3216184	V A I
-1.129787	R A I
-1.3335322	P A I
-1.2034936	B A I
-1.1099116	D A I
-1.2832416	F A I
-1.3276204	K A I
-1.1777405	Z A I
-1.1760906	U A I
-1.7128898	C A I
-1.0163876	G A I
-1.1914427	W A I
-1.9276587	<s> E I
-1.1618623	I E I
-1.5287685	T E I
-2.1683075	S E I
-1.3238659	J E I
-1.4723918	O E I
-1.4836942	H E I
-1.2796667	N E I
-0.21115413	M E I
-1.1332686	Y E I
-1.9200442	A E I
-1.5426247	E E I
-1.2026207	L E I
-1.9703786	V E I
-1.4780549	R E I
-2.016377	P E I
-1.5489708	B E I
-1.6362847	D E I
-1.283787	K E I
-1.0946779	Z E I
-1.1293768	C E I
-1.2962174	G E I
-1.4473032	W E I
-1.0271325	<s> L I
-0.5841576	I L I
-0.92516655	T L I
-1.0674918	S L I
-0.8523271	O L I
-0.6833249	H L I
-0.8386377	N L I
-0.839849	M L I
-0.67354524	Y L I
-0.6674891	A L I
-0.91909933	E L I
-0.758076	L L I
-0.7455225	R L I
-0.8712427	P L I
-1.6793015	B L I
-0.6870914	D L I
-1.1791571	F L I
-0.65759856	K L I
-0.6287199	U L I
-0.8769086	C L I
-0.5361074	G L I
-0.69176304	W L I
-0.51022214	Q L I
-0.55908155	<s> V I
-0.6314773	I V I
-0.7191822	S V I
-0.44982055	O V I
-0.77412325	N V I
-0.5304274	M V I
-0.54769814	A V I
-0.68358654	E V I
-0.34203175	L V I
-0.4492764	R V I
-1.0363427	D V I
-0.7003893	F V I
-0.7352688	U V I
-0.4476759	X V I
-0.8464047	<s> R I
-0.5218541	I R I
-0.33654332	T R I
-0.87884593	S R I
-0.13125223	J R I
-0.70203745	O R I
-0.15845992	H R I
-0.5118581	N R I
-0.62385195	M R I
-0.92495954	Y R I
-0.6302646	A R I
-0.6200831	E R I
-1.1015897	L R I
-0.83068883	R R I
-0.33183146	P R I
-0.68192303	B R I
-0.5143028	D R I
-0.734473	F R I
-0.24650577	K R I
-0.6739441	U R I
-0.40724656	C R I
-0.6833958	G R I
-1.3419747	<s> P I
-0.7541383	I P I
-0.73774546	S P I
-0.72544134	J P I
-1.5642028	O P I
-1.068843	M P I
-1.587281	Y P I
-0.8786152	A P I
-0.8624538	E P I
-1.6057609	L P I
-0.8930904	P P I
-1.3024954	F P I
-0.8191221	U P I
-0.7557415	<s> B I
-1.083756	I B I
-0.83673966	S B I
-0.78690076	O B I
-0.7852268	M B I
-1.1330073	Y B I
-0.7084952	A B I
-0.99979323	E B I
-1.1318079	L B I
-0.8197627	B B I
-0.8815353	F B I
-0.663911	U B I
-0.71293765	<s> D I
-0.6929555	I D I
-0.73056597	S D I
-0.60799086	O D I
-0.8342726	H D I
-0.89289975	N D I
-0.84972787	M D I
-0.7201827	Y D I
-0.56569374	A D I
-0.5124929	E D I
-0.883994	L D I
-0.6362441	V D I
-0.76666665	R D I
-0.76191306	B D I
-0.6530617	D D I
-0.730898	F D I
-0.54464304	U D I
-1.1067783	<s> F I
-1.2351841	I F I
-0.9255611	S F I
-0.95519954	O F I
-0.7733515	M F I
-0.77320087	A F I
-1.1154897	E F I
-1.7244147	L F I
-0.7543716	F F I
-1.0382503	U F I
-0.46149427	<s> K I
-0.69042915	I K I
-0.45045066	S K I
-0.34462714	J K I
-0.7825995	O K I
-0.4653744	H K I
-0.8687848	N K I
-0.6128793	M K I
-0.4653744	Y K I
-0.6110476	A K I
-0.6359544	E K I
-0.32483238	L K I
-0.6130398	V K I
-1.1816934	R K I
-0.89442325	B K I
-0.66103804	D K I
-0.40275937	F K I
-0.69187623	K K I
-0.7648055	U K I
-0.6177635	C K I
-0.8258261	<s> Z I
-0.6086797	I Z I
-0.8811544	S Z I
-0.4892049	J Z I
-0.5658784	O Z I
-0.45269015	N Z I
-0.5852635	M Z I
-0.4473129	A Z I
-0.51988447	E Z I
-0.56958914	R Z I
-0.45654616	D Z I
-0.8203131	F Z I
-0.6827313	Z Z I
-0.6023512	U Z I
-0.9528949	<s> U I
-2.0672235	I U I
-1.5675259	T U I
-1.880749	S U I
-1.2463868	O U I
-2.116243	H U I
-1.994966	N U I
-1.5220063	M U I
-1.9175645	A U I
-1.6176597	E U I
-1.4905744	L U I
-1.4668813	V U I
-1.6045958	R U I
-1.4763911	B U I
-1.5986882	D U I
-1.5120456	F U I
-1.9561808	K U I
-1.4663088	U U I
-1.108017	G U I
-0.29941034	Q U I
-2.137525	<s> C I
-1.1866506	I C I
-0.81558937	T C I
-1.9525535	S C I
-0.20033678	H C I
-0.7668513	N C I
-2.0210426	M C I
-0.5604794	Y C I
-1.4521245	A C I
-0.9222139	E C I
-1.2531587	R C I
-0.6845578	D C I
-0.7442448	U C I
-0.83464646	C C I
-0.9615106	<s> G I
-0.80740577	I G I
-0.19870135	T G I
-0.98512655	S G I
-1.7606008	O G I
-1.0264317	N G I
-1.4234157	M G I
-0.8077381	Y G I
-0.8251941	A G I
-0.8884522	E G I
-1.0743436	L G I
-1.0586846	R G I
-1.1938161	F G I
-1.0151839	U G I
-0.4346417	G G I
-0.6483119	<s> W I
-0.80569965	I W I
-1.1596229	T W I
-0.7517124	S W I
-0.68143076	O W I
-0.916909	H W I
-0.9000455	M W I
-0.7442009	A W I
-1.1957262	E W I
-0.8456798	L W I
-1.1167984	R W I
-0.92534894	P W I
-0.9553826	B W I
-0.37685937	D W I
-0.8854651	F W I
-0.6683071	K W I
-0.930235	U W I
-0.97996116	G W I
-0.17575787	Q W I
-0.9981872	I X I
-1.1710951	S X I
-0.7846469	O X I
-0.7165167	A X I
-0.8045179	E X I
-0.46133673	L X I
-0.7248703	K X I
-1.1478896	A Q I
-0.82351065	F Q I
-1.0571256	A 2 I
-0.20191963	K 2 I
-0.14759414	9 6 I
-0.19411363	S 1 I
-0.46416613	O 1 I
-0.31076303	<s> I T
-2.400632	I I T
-1.8012102	T I T
-1.620846	S I T
-1.9334772	J I T
-2.041754	H I T
-1.6486363	N I T
-1.6734138	M I T
-2.1410306	Y I T
-1.2965568	A I T
-2.994639	E I T
-1.7089105	L I T
-1.0286732	V I T
-1.4548602	R I T
-1.1676161	P I T
-1.307973	B I T
-1.6321087	D I T
-1.4296565	F I T
-1.2432745	K I T
-2.077781	Z I T
-1.5239376	C I T
-1.4618931	G I T
-1.4126263	W I T
-1.3314565	X I T
-2.4873195	I T T
-1.1215241	O T T
-1.6495674	A T T
-1.0878971	E T T
-1.7056444	R T T
-1.4170232	U T T
-1.4771152	<s> S T
-1.6627215	I S T
-1.843138	T S T
-1.660353	S S T
-0.9560847	J S T
-0.963017	O S T
-1.3901036	N S T
-1.7953272	M S T
-2.2473276	Y S T
-1.0690643	A S T
-0.689952	E S T
-1.0709765	L S T
-0.65249574	R S T
-1.4692072	F S T
-0.95730466	U S T
-0.8552493	G S T
-1.2374305	<s> O T
-1.8276178	I O T
-2.2520747	T O T
-2.2427726	S O T
-1.6106496	J O T
-1.9913691	H O T
-1.913548	N O T
-1.1734326	M O T
-1.883684	Y O T
-1.4206351	L O T
-1.0137916	V O T
-1.7286677	R O T
-1.7216017	P O T
-1.6235988	B O T
-1.8797007	D O T
-1.8042994	F O T
-1.7329698	K O T
-1.5559692	Z O T
-1.5301367	C O T
-1.4246525	G O T
-1.0917192	W O T
-2.036344	I H T
-2.3176982	S H T
-2.2696328	A H T
-0.39059913	V H T
-1.8598005	P H T
-1.8263067	K H T
-2.0034282	U H T
-0.66834116	G H T
-2.538516	<s> N T
-1.653501	I N T
-1.2567073	S N T
-1.958014	O N T
-1.6517805	M N T
-3.466205	Y N T
-1.4047644	A N T
-1.1428735	E N T
-1.8268336	F N T
-1.5039414	U N T
-2.818159	<s> M T
-2.2759597	I M T
-2.1843925	S M T
-2.0386815	O M T
-1.9683405	M M T
-2.3487437	A M T
-2.483329	E M T
-1.9742019	F M T
-2.384717	U M T
-2.0390425	O Y T
-2.0347095	A Y T
-1.6090128	B Y T
-2.1994755	D Y T
-1.6157852	<s> A T
-2.3651068	I A T
-1.8643321	T A T
-1.6004807	S A T
-1.9233825	J A T
-1.4657707	H A T
-2.089675	N A T
-1.3428912	M A T
-1.5080773	Y A T
-1.7809155	A A T
-0.8418858	E A T
-1.493129	L A T
-1.1364806	V A T
-1.3490479	R A T
-1.0913117	P A T
-1.1646571	B A T
-1.5036746	D A T
-1.1607966	F A T
-1.0373013	K A T
-0.95916754	C A T
-1.6065716	G A T
-1.7609013	W A T
-1.3167311	X A T
-1.9131318	<s> E T
-1.0605246	I E T
-1.525776	T E T
-1.951515	S E T
-1.456089	J E T
-1.3931503	O E T
-1.9121814	H E T
-1.1004543	N E T
-2.5215971	M E T
-1.886775	Y E T
-1.8193988	A E T
-1.6527246	E E T
-1.3351575	L E T
-1.6747152	V E T
-1.1143303	R E T
-0.7287719	P E T
-0.89144903	B E T
-1.4600731	D E T
-1.6331973	F E T
-1.5793676	K E T
-1.1730908	Z E T
-1.7165722	C E T
-1.3284813	G E T
-1.5928847	W E T
-0.21307516	Q E T
-2.8875527	I L T
-2.5669112	O L T
-1.9241232	A L T
-2.6746745	E L T
-1.8417937	R L T
-2.0039973	U L T
-0.90264845	V V T
-2.2008097	I R T
-1.8976893	O R T
-1.3814003	A R T
-1.214016	E R T
-1.7350386	U R T
-1.8349777	O P T
-2.1939442	M P T
-1.891786	A P T
-1.8845699	E P T
-2.8442485	A B T
-1.8659433	L B T
-2.9603324	N D T
-2.729123	A D T
-2.2824738	E D T
-2.238624	R D T
-2.2639346	U D T
-1.2651787	I F T
-2.0445383	S F T
-2.0591671	A F T
-1.7048991	E F T
-1.822803	L F T
-1.6001837	F F T
-2.2339208	I K T
-2.3118823	O K T
-2.195857	E K T
-2.3532853	C K T
-2.0864995	I U T
-1.8913105	T U T
-1.9364376	S U T
-1.6875468	J U T
-1.6909841	O U T
-1.7110927	H U T
-1.97461	N U T
-1.2222342	M U T
-1.4084395	A U T
-1.3490808	E U T
-1.0392936	L U T
-1.0526739	R U T
-1.0209947	P U T
-1.3027117	B U T
-1.5065359	D U T
-1.5199773	F U T
-1.417591	K U T
-1.2088642	C U T
-1.4506927	G U T
-1.481702	I C T
-2.5508528	S C T
-1.0681171	O C T
-2.1807225	M C T
-1.7775215	A C T
-1.7017205	E C T
-0.37554693	V C T
-1.6395845	U C T
-2.5007846	I G T
-2.2712595	O G T
-2.9342515	N G T
-1.2415054	I X T
-1.2987297	A X T
-1.6887751	E X T
-2.3361108	<s> I S
-0.03473084	I I S
-1.1007507	T I S
-0.16180174	S I S
-1.5829384	J I S
-0.09625452	O I S
-0.10717816	H I S
-0.70613265	N I S
-0.82393247	M I S
-0.27781117	Y I S
-0.21441634	A I S
-0.009283878	E I S
-0.9420574	L I S
-1.3079053	V I S
-0.6027521	R I S
-1.806182	P I S
-1.002666	B I S
-0.96630394	D I S
-0.9219819	F I S
-0.89450955	K I S
-1.5115587	Z I S
-0.13429268	U I S
-1.213378	C I S
-1.1494485	G I S
-1.1783779	W I S
-0.36934257	X I S
-0.3797582	Q I S
-0.3797582	2 I S
-0.2108229	6 I S
-0.3797582	1 I S
-0.08347384	I T S
-2.7146485	S T S
-2.1190455	O T S
-2.3892107	N T S
-2.0990098	A T S
-2.5125065	E T S
-1.982356	R T S
-1.3788536	I S S
-1.1378506	T S S
-1.0796427	O S S
-2.02319	N S S
-2.3454063	M S S
-2.9474437	Y S S
-1.2783623	A S S
-1.0009757	E S S
-1.4734235	L S S
-1.4893522	R S S
-2.0295267	F S S
-1.4990957	U S S
-0.8314989	D J S
-1.0217712	<s> O S
-1.8929205	I O S
-1.9559004	T O S
-1.317697	S O S
-0.69878894	J O S
-1.1700648	H O S
-1.2204686	N O S
-1.092556	M O S
-1.5809995	Y O S
-1.9260501	E O S
-1.2118803	L O S
-0.89221907	R O S
-1.3637407	P O S
-1.6923003	B O S
-1.6111695	D O S
-1.7691896	F O S
-1.3014572	K O S
-0.764889	C O S
-1.4713868	G O S
-2.5996418	A H S
-2.0826528	U H S
-2.7208884	<s> N S
-2.0812328	I N S
-1.5472058	S N S
-1.3405458	O N S
-1.2356834	H N S
-2.248643	N N S
-1.6279696	M N S
-1.6495061	A N S
-1.4259614	E N S
-1.2825096	F N S
-0.66387814	K N S
-1.9662176	U N S
-2.360475	<s> M S
-2.0021925	I M S
-1.8808293	S M S
-1.743367	O M S
-1.4885247	M M S
-1.7854137	A M S
-1.6369122	E M S
-1.3137083	F M S
-2.2415786	U M S
-2.0820565	I Y S
-1.4896492	O Y S
-1.4516995	H Y S
-2.5660272	N Y S
-0.4946555	M Y S
-1.7133698	A Y S
-1.6533194	E Y S
-1.0605991	L Y S
-1.3800313	R Y S
-1.2937036	P Y S
-1.2850378	B Y S
-2.0986722	D Y S
-1.20225	<s> A S
-1.7996982	I A S
-1.5401908	T A S
-1.4725447	S A S
-1.2854034	J A S
-1.4536873	O A S
-1.5264765	H A S
-2.0016274	N A S
-1.1974039	M A S
-1.42566	Y A S
-1.3973961	A A S
-1.2576196	E A S
-1.3769363	L A S
-1.0640578	V A S
-1.1119167	R A S
-0.93202895	P A S
-1.027667	B A S
-1.3573467	D A S
-1.1588249	F A S
-1.0561136	K A S
-1.8111061	Z A S
-1.3986901	U A S
-0.8231799	C A S
-1.3397089	G A S
-1.4467483	W A S
-1.0069647	<s> E S
-1.8108225	I E S
-1.7308884	T E S
-1.5855535	S E S
-0.9075619	J E S
-1.246602	H E S
-0.71394557	N E S
-2.2928693	M E S
-1.2237086	Y E S
-1.824624	A E S
-1.5388639	E E S
-1.1555712	L E S
-1.3472333	V E S
-0.99797827	R E S
-1.2555984	P E S
-1.8706326	B E S
-1.0665114	D E S
-0.90783954	F E S
-1.361067	K E S
-1.8116866	Z E S
-1.4825662	C E S
-1.4296497	G E S
-1.1567649	W E S
-0.7630479	X E S
-2.3479428	I L S
-2.540577	O L S
-2.090419	A L S
-2.585253	E L S
-2.6082156	L L S
-1.0470141	N V S
-2.3245194	E V S
-1.7779099	I R S
-2.057785	T R S
-2.3726103	O R S
-1.4694146	H R S
-1.9735429	M R S
-1.9062581	A R S
-1.6825614	E R S
-1.8680085	K R S
-2.2006125	U R S
-1.998625	O P S
-0.12712935	Y P S
-1.6159008	P P S
-2.3083084	I B S
-2.2550282	O B S
-2.1640646	A B S
-2.4465592	S D S
-1.9092534	O D S
-2.6906705	N D S
-2.122365	M D S
-2.1359186	A D S
-1.7497805	E D S
-2.1403682	R D S
-2.0586739	U D S
-1.4303231	N F S
-1.870325	A F S
-1.2132727	L F S
-2.205275	I K S
-2.3655484	A K S
-2.1557028	E K S
-2.3684943	U K S
-1.250524	C K S
-0.16429983	I U S
-0.70713544	T U S
-1.2812753	S U S
-0.94963396	J U S
-0.68206435	O U S
-1.2392263	H U S
-0.40556428	N U S
-1.1221806	M U S
-0.8001949	Y U S
-0.8273878	A U S
-0.34227178	E U S
-1.0596836	L U S
-1.5201243	V U S
-1.2195286	R U S
-1.5722437	P U S
-1.1231997	B U S
-1.6528642	D U S
-1.7012823	F U S
-1.0535114	K U S
-0.4178517	C U S
-1.0745912	G U S
-2.4933422	I C S
-2.3207119	A C S
-2.5776577	N G S
-1.0330964	Y G S
-2.7646914	A G S
-2.101389	A W S
-1.8304913	E W S
-1.3919276	E X S
-0.61055875	I 2 S
-0.61055875	E 2 S
-0.24993837	U 3 S
-0.08495626	R ’ S
-2.6222982	T I J
-3.172774	S I J
-2.0944757	J I J
-2.4477148	H I J
-1.9704037	N I J
-2.2894716	M I J
-2.3494737	A I J
-2.1421752	L I J
-2.2250082	V I J
-2.3014755	R I J
-1.8506126	B I J
-1.8076744	D I J
-1.7242217	K I J
-2.3092365	Z I J
-1.9452547	G I J
-2.2690456	W I J
-1.5397391	I S J
-1.3284057	T S J
-2.4350631	A J J
-1.7000885	D J J
-2.4578047	T O J
-2.4734638	S O J
-2.2113972	J O J
-1.9667765	H O J
-2.3291357	M O J
-1.6752472	A O J
-2.0850062	L O J
-2.1266956	R O J
-2.369954	B O J
-2.4881363	D O J
-2.3659282	K O J
-2.035159	G O J
-2.8457062	A H J
-2.4740193	P H J
-2.5406861	<s> N J
-1.924744	I N J
-1.4774288	S N J
-1.8112192	O N J
-2.0863726	M N J
-1.5595002	A N J
-1.6949887	E N J
-1.396956	D N J
-1.9318461	F N J
-1.6643478	U N J
-3.498551	<s> M J
-2.6303418	I M J
-2.7637064	S M J
-2.4741383	M M J
-1.9394927	A M J
-1.0587535	D M J
-2.3911936	F M J
-2.9006457	N Y J
-1.8976486	B Y J
-1.5755072	<s> A J
-2.905096	I A J
-2.254256	T A J
-1.8237655	S A J
-2.3774898	J A J
-2.0502675	H A J
-3.3988621	N A J
-1.5977744	M A J
-2.4990695	L A J
-2.1104763	R A J
-1.8953661	P A J
-1.9789737	B A J
-2.2273617	F A J
-1.8841531	K A J
-2.3126578	C A J
-1.8748457	G A J
-2.128469	W A J
-2.898951	S E J
-2.449393	J E J
-2.6350825	N E J
-3.3900893	M E J
-2.185487	Y E J
-1.9405887	A E J
-2.4663074	L E J
-2.5204713	R E J
-2.0843236	B E J
-2.3319228	D E J
-2.2994196	K E J
-2.4503703	G E J
-2.3852143	W E J
-3.1749997	A L J
-2.6257675	O R J
-2.1390853	M R J
-2.3153589	A R J
-2.5591707	U R J
-2.3816574	A B J
-1.3801687	<s> D J
-1.1359617	S D J
-1.229339	M D J
-2.5966737	A D J
-1.8163784	F D J
-1.326342	L F J
-2.137444	T U J
-1.7482452	J U J
-2.2391734	H U J
-2.421022	M U J
-2.1801748	L U J
-2.1803446	R U J
-1.7038022	P U J
-1.6313603	B U J
-2.3017135	D U J
-2.0733483	F U J
-2.3051841	K U J
-1.6677254	G U J
-1.9103434	T I O
-2.6423717	S I O
-3.120969	H I O
-2.6709707	N I O
-2.0161068	M I O
-2.01321	L I O
-1.6810725	V I O
-1.9283807	R I O
-2.0341852	P I O
-2.498768	B I O
-1.5319175	D I O
-1.922892	K I O
-2.1784673	Z I O
-1.8813851	C I O
-2.363868	G I O
-2.852802	<s> T O
-1.6555257	I T O
-1.09219	T T O
-0.8004794	S T O
-1.1475669	O T O
-0.74427736	H T O
-0.91945946	N T O
-1.5782564	M T O
-0.47427484	Y T O
-1.1358259	A T O
-1.4607148	E T O
-0.72129697	L T O
-0.19817866	V T O
-1.2230674	R T O
-1.0052508	P T O
-0.7455635	F T O
-0.5671222	K T O
-0.99149597	U T O
-0.62681437	C T O
-0.6932323	G T O
-0.8117771	X T O
-1.4944614	<s> S O
-1.9177957	I S O
-1.9042587	T S O
-1.2414682	S S O
-0.96109915	J S O
-1.4249855	O S O
-0.776358	N S O
-0.882365	M S O
-2.0633175	Y S O
-1.3411891	A S O
-1.7126337	E S O
-0.6729677	L S O
-0.61323	V S O
-0.8912418	R S O
-1.7119436	P S O
-0.30387422	B S O
-0.19204551	D S O
-1.2011241	F S O
-0.18921024	K S O
-1.521071	U S O
-0.6893011	C S O
-0.8889159	G S O
-0.5433971	W S O
-0.69918454	<s> J O
-1.334071	I J O
-0.6356862	S J O
-1.3715255	O J O
-1.0782812	N J O
-0.64250034	M J O
-0.45617458	Y J O
-1.1759698	A J O
-0.7594176	E J O
-0.55061173	R J O
-1.1719794	D J O
-0.663778	F J O
-1.3236687	U J O
-1.6346543	<s> O O
-2.3965354	S O O
-2.1364274	J O O
-1.606501	H O O
-2.1198974	N O O
-1.8199685	M O O
-1.8068464	Y O O
-2.056885	L O O
-1.7313977	V O O
-1.9748834	R O O
-1.604611	P O O
-2.294844	B O O
-1.9829303	D O O
-2.4327245	K O O
-1.7260525	G O O
-0.85785997	<s> H O
-0.6821514	I H O
-1.7827616	T H O
-1.1028593	S H O
-1.2141467	O H O
-0.7975831	N H O
-0.8019371	M H O
-1.1696866	A H O
-0.698905	E H O
-0.6184792	R H O
-1.0636868	P H O
-1.0670424	B H O
-1.1965402	F H O
-1.6331894	K H O
-1.1886344	U H O
-1.1334094	C H O
-1.2698506	G H O
-2.2537196	<s> N O
-1.4818101	I N O
-1.183169	S N O
-1.7356935	O N O
-1.0420257	N N O
-1.2410129	M N O
-3.4887257	Y N O
-1.5786898	A N O
-1.4547068	E N O
-1.4191655	L N O
-1.1697075	R N O
-1.3991923	F N O
-0.6544122	K N O
-1.7174877	U N O
-1.5778825	G N O
-2.2479525	<s> M O
-0.9736071	I M O
-0.4925881	T M O
-1.8932853	S M O
-1.0010505	O M O
-1.0717645	H M O
-1.4837344	M M O
-0.41662797	Y M O
-2.1496544	A M O
-1.3596966	E M O
-1.599389	L M O
-0.8405777	R M O
-0.6307708	P M O
-0.8817991	D M O
-1.4579169	F M O
-1.799308	U M O
-0.8772542	G M O
-0.54698133	<s> Y O
-1.0436158	I Y O
-1.0873911	S Y O
-0.9938985	O Y O
-1.339307	H Y O
-1.1783637	N Y O
-2.8408222	M Y O
-0.80280787	Y Y O
-0.83668053	A Y O
-1.6847007	E Y O
-1.1874449	L Y O
-0.891119	V Y O
-1.7342268	R Y O
-1.0891364	P Y O
-1.4289231	B Y O
-0.8560394	F Y O
-0.801757	K Y O
-1.3080695	Z Y O
-1.0418911	U Y O
-1.4532503	C Y O
-2.829456	I A O
-2.5489392	H A O
-3.6753228	N A O
-3.0464485	M A O
-2.4161055	Y A O
-2.610943	L A O
-2.7928128	B A O
-2.7441847	D A O
-2.3785167	K A O
-2.415752	Z A O
-2.3608654	C A O
-2.2102847	G A O
-2.7693863	W A O
-2.20851	T E O
-3.1196165	S E O
-2.3956897	J E O
-1.956475	H E O
-2.504573	N E O
-3.1640413	M E O
-1.9956288	Y E O
-1.6459446	L E O
-1.900888	R E O
-2.6326027	B E O
-1.1792696	D E O
-2.1473489	F E O
-2.1649606	K E O
-1.9748135	G E O
-2.3811717	W E O
-0.8175096	<s> L O
-1.0204223	I L O
-0.8378428	S L O
-0.23350136	J L O
-0.74974334	O L O
-1.1009619	H L O
-0.91965127	M L O
-1.358738	Y L O
-1.3445225	A L O
-1.7322663	E L O
-1.2139084	L L O
-1.4301578	R L O
-0.8883029	P L O
-0.94726545	B L O
-1.0862286	D L O
-0.77228105	F L O
-1.5707681	K L O
-0.3589983	Z L O
-1.346194	U L O
-1.3744525	C L O
-0.9802761	G L O
-1.5670277	<s> V O
-1.1070511	I V O
-1.6343309	S V O
-1.4042808	O V O
-0.85396874	N V O
-0.6658828	Y V O
-1.3703715	A V O
-0.85779005	E V O
-1.0591197	D V O
-1.2394023	U V O
-0.8270027	<s> R O
-1.0638196	I R O
-1.0306741	T R O
-0.8352977	S R O
-0.86071366	O R O
-0.9526643	M R O
-0.94264746	Y R O
-1.1313612	A R O
-1.3524606	E R O
-1.013711	L R O
-1.0096675	R R O
-0.94907594	P R O
-0.8225174	B R O
-0.8839515	D R O
-0.8438844	F R O
-1.7770188	K R O
-0.3850179	Z R O
-1.4977546	U R O
-1.3113456	C R O
-1.5024459	G R O
-0.82559526	<s> P O
-1.0665675	I P O
-0.92070854	S P O
-1.1680338	O P O
-0.7810997	N P O
-0.803582	M P O
-1.1845406	A P O
-1.2805368	E P O
-1.3199482	P P O
-1.3011059	F P O
-1.122952	U P O
-1.5454069	<s> B O
-1.0741471	I B O
-1.3024805	S B O
-0.81227237	O B O
-0.5956981	N B O
-0.7950101	M B O
-1.0157766	Y B O
-1.3583785	A B O
-0.9529455	E B O
-1.5069346	L B O
-1.2959194	R B O
-1.2838259	B B O
-1.201612	F B O
-0.5943659	K B O
-0.7841874	Z B O
-1.4241406	U B O
-0.59676284	<s> D O
-1.1924307	I D O
-0.6176604	S D O
-1.049123	O D O
-0.81514966	N D O
-0.82768035	M D O
-1.0012463	A D O
-1.6594876	E D O
-1.2936938	L D O
-1.3324075	R D O
-1.8194598	B D O
-1.3688418	D D O
-0.5810053	F D O
-0.7154862	Z D O
-0.97054386	U D O
-0.20229433	C D O
-1.090412	G D O
-0.23455973	X D O
-1.164638	<s> F O
-1.1692564	I F O
-0.44451606	T F O
-1.4441365	S F O
-0.7477704	J F O
-0.92068374	H F O
-1.0324436	N F O
-1.4570112	M F O
-1.6314806	A F O
-1.2832193	E F O
-1.7931954	L F O
-0.9054976	R F O
-0.40088186	D F O
-1.385435	F F O
-1.231793	<s> K O
-0.82559675	I K O
-1.0653684	S K O
-0.6208061	O K O
-0.573743	N K O
-0.9530207	M K O
-1.063413	A K O
-1.0570642	E K O
-1.4731807	L K O
-1.2531086	R K O
-1.2560488	F K O
-0.92601997	K K O
-0.8843514	U K O
-1.2427673	C K O
-1.2188152	<s> Z O
-1.2343442	I Z O
-1.6184957	S Z O
-1.5289165	O Z O
-1.0304382	N Z O
-1.0516814	M Z O
-1.0611064	A Z O
-1.6232167	E Z O
-0.19393456	B Z O
-0.90087456	D Z O
-0.8968556	F Z O
-1.0536684	Z Z O
-0.97184956	U Z O
-2.3303816	T U O
-2.0880127	S U O
-2.190001	N U O
-2.5204575	M U O
-1.7715297	Y U O
-2.629681	L U O
-2.1160135	F U O
-2.3551953	K U O
-2.383432	G U O
-1.2199552	<s> C O
-1.1399889	I C O
-0.94278556	S C O
-1.2069002	O C O
-1.6076479	N C O
-1.3541303	M C O
-1.8054137	A C O
-1.3736223	E C O
-1.3181144	R C O
-1.1890717	F C O
-1.5857246	U C O
-0.7510989	<s> G O
-0.9509005	I G O
-0.7104686	S G O
-0.44706768	O G O
-0.7313456	N G O
-0.55421126	M G O
-0.91612923	Y G O
-1.0180509	A G O
-0.8224917	E G O
-1.2693481	R G O
-0.6589165	F G O
-1.0910187	U G O
-1.6948385	I W O
-1.0194407	J W O
-0.6420168	O W O
-1.378153	N W O
-1.9485117	M W O
-1.4996352	A W O
-1.0880544	E W O
-1.9537371	B W O
-2.0589318	K W O
-1.524133	U W O
-1.7397662	G W O
-1.1005518	I X O
-0.61863375	N X O
-1.1460925	A X O
-0.70101595	K X O
-0.20410235	C X O
-0.08495626	O 5 O
-0.20630333	1 1 O
-3.5355878	<s> I H
-2.4796429	T I H
-2.9045494	S I H
-1.9371378	J I H
-2.8460388	H I H
-2.1307724	N I H
-1.8907565	M I H
-2.272071	Y I H
-2.889389	A I H
-2.1757298	L I H
-2.1790721	R I H
-1.8996484	B I H
-2.5866606	D I H
-1.435809	K I H
-2.2402058	Z I H
-2.3335679	G I H
-2.1166763	W I H
-0.011849308	<s> T H
-1.654537	I T H
-1.4723973	S T H
-0.81935644	O T H
-1.0896357	N T H
-1.1777699	M T H
-0.7362546	A T H
-0.5972024	E T H
-0.6377444	L T H
-0.5540228	R T H
-1.0797014	P T H
-0.2648546	D T H
-1.1079692	F T H
-0.80623174	U T H
-0.5625114	<s> S H
-1.6538503	I S H
-1.6430774	T S H
-0.7067958	S S H
-0.81879026	J S H
-0.9851291	O S H
-1.5534551	N S H
-0.78171015	M S H
-3.196931	Y S H
-0.8127396	A S H
-1.1317009	E S H
-1.4129368	L S H
-1.4401364	R S H
-1.1419415	B S H
-0.5771133	F S H
-1.2307086	U S H
-1.7159227	D J H
-1.9179105	I O H
-2.3598003	T O H
-2.419692	S O H
-1.1233622	J O H
-1.6958568	O O H
-2.0588357	H O H
-1.4611328	M O H
-1.8196291	Y O H
-1.7347652	A O H
-2.0033665	E O H
-1.9860026	R O H
-2.317486	B O H
-1.8801123	K O H
-1.9426196	G O H
-2.3990984	A H H
-2.6722624	I N H
-1.6805743	T N H
-2.526478	S N H
-2.7374208	O N H
-3.047108	A N H
-2.862221	E N H
-2.021233	F N H
-0.67726785	C N H
-2.7057288	<s> M H
-2.33232	I M H
-2.3214788	S M H
-1.8008143	M M H
-2.2398863	A M H
-2.3121715	F M H
-1.401107	<s> Y H
-2.6477659	A Y H
-1.7393658	<s> A H
-1.8609866	I A H
-1.6989802	T A H
-1.8287736	S A H
-1.5595253	J A H
-1.5637432	O A H
-2.0960326	H A H
-2.2057593	N A H
-1.3351163	M A H
-1.5832933	Y A H
-1.3099701	E A H
-1.395725	L A H
-2.149616	V A H
-1.112472	R A H
-1.7307746	P A H
-1.4403957	B A H
-2.0465963	D A H
-1.8587115	F A H
-1.7743057	K A H
-1.4354695	Z A H
-1.8095833	C A H
-2.0015264	G A H
-1.8716959	W A H
-0.9436462	Q A H
-1.986223	I E H
-2.981642	S E H
-1.6341139	J E H
-1.9576052	H E H
-2.3649793	N E H
-3.5796506	M E H
-1.831905	Y E H
-1.9696995	L E H
-1.9018371	R E H
-2.6369438	B E H
-2.5255282	D E H
-2.2914872	K E H
-1.935864	Z E H
-2.1740828	G E H
-2.38533	W E H
-2.559037	I L H
-2.2909088	A L H
-2.7294843	E L H
-2.18682	L L H
-1.4748933	D L H
-2.0027175	U L H
-2.1968896	A V H
-2.0202289	<s> R H
-2.3911328	I R H
-2.2944026	S R H
-1.9143783	O R H
-1.8988327	M R H
-2.6480384	A R H
-2.5742075	E R H
-2.1047015	B R H
-2.1656237	F R H
-2.1824427	U R H
-0.8111023	<s> P H
-0.62971586	I P H
-0.5868993	T P H
-0.83668697	S P H
-0.35815895	O P H
-0.73682743	N P H
-1.0316455	M P H
-1.0999964	Y P H
-0.74416316	A P H
-0.3970934	E P H
-0.057792038	L P H
-0.81281394	R P H
-0.46613604	D P H
-1.1405416	F P H
-1.0942724	U P H
-1.976937	O B H
-2.8758276	M B H
-2.6954505	A B H
-1.9917456	E B H
-1.7675093	U B H
-2.1764328	<s> D H
-2.0042553	I D H
-2.0217125	S D H
-1.9795426	O D H
-2.103235	M D H
-1.4907539	A D H
-2.1196823	R D H
-1.9353479	F D H
-1.5828315	U D H
-1.7344918	<s> F H
-1.7230549	I F H
-2.0030484	S F H
-1.6348041	M F H
-2.05381	A F H
-1.8098776	E F H
-1.6473598	L F H
-1.8193065	<s> K H
-2.3672404	I K H
-1.6048481	S K H
-2.1104448	O K H
-1.7724304	M K H
-1.843724	A K H
-2.0291224	E K H
-1.5284593	L K H
-1.8378557	F K H
-1.7867504	U K H
-2.154024	I U H
-1.9051415	S U H
-1.5614815	J U H
-1.9473615	H U H
-1.7669036	N U H
-1.0290855	M U H
-1.6247684	L U H
-1.5771124	R U H
-1.6648974	P U H
-1.7060258	B U H
-2.2045238	D U H
-1.584905	K U H
-1.7290984	Z U H
-2.2722108	G U H
-0.25799727	<s> C H
-0.6174274	I C H
-0.5905057	T C H
-0.2696358	S C H
-0.67199266	O C H
-0.8471987	N C H
-0.19387606	M C H
-1.10318	Y C H
-0.44034708	A C H
-0.70935535	E C H
-0.5966482	L C H
-0.6383843	R C H
-0.7458551	D C H
-0.22172192	F C H
-0.5500377	U C H
-0.81633985	C C H
-1.8230304	<s> G H
-1.0491072	I G H
-1.9422427	S G H
-1.9770174	O G H
-2.1082752	N G H
-1.8754073	M G H
-0.953506	Y G H
-1.7551004	A G H
-1.5522075	U G H
-1.5100731	<s> W H
-2.302657	S W H
-2.8545818	M W H
-1.3066463	I X H
-1.0184883	O X H
-1.3596461	A X H
-2.4970002	<s> I N
-0.5753974	T I N
-1.5289785	S I N
-1.0923448	J I N
-1.4804263	O I N
-1.5968137	H I N
-1.586709	N I N
-0.7112298	M I N
-1.6876013	Y I N
-1.2964549	A I N
-2.5425792	E I N
-0.8343544	L I N
-0.5199975	V I N
-1.0590034	R I N
-0.50194335	P I N
-0.984012	B I N
-1.1373245	D I N
-0.63712615	F I N
-1.243153	K I N
-1.350071	Z I N
-1.0154061	U I N
-1.5226588	C I N
-0.72972697	G I N
-0.7075248	W I N
-2.4660425	I T N
-1.940901	T T N
-1.9322004	S T N
-1.4958953	H T N
-2.252517	N T N
-2.55772	A T N
-1.9274926	E T N
-1.9021002	R T N
-2.1778488	U T N
-0.84914356	G T N
-2.4536307	<s> S N
-1.5232013	I S N
-1.296281	T S N
-1.0277163	J S N
-2.5764637	A S N
-2.5430968	E S N
-1.5616477	K S N
-2.2146363	U S N
-2.445619	A J N
-0.99841297	<s> O N
-0.45474228	I O N
-0.49039024	T O N
-0.3057966	S O N
-0.9294786	J O N
-0.89038193	O O N
-0.579563	H O N
-1.1453105	N O N
-0.5580238	M O N
-0.7671211	Y O N
-0.99576694	A O N
-0.6788901	E O N
-0.81289804	L O N
-0.5786874	V O N
-0.78521204	R O N
-0.8348049	P O N
-0.83113515	B O N
-0.73699886	D O N
-0.42774275	F O N
-0.7199404	K O N
-1.028824	Z O N
-1.0572498	U O N
-0.7418177	C O N
-1.1967146	G O N
-0.7782174	W O N
-0.092362694	X O N
-3.0093904	T H N
-2.4232476	S H N
-0.92482084	O H N
-2.5401776	A H N
-1.8518941	E H N
-1.4606185	R H N
-1.7712421	P H N
-1.6567198	I N N
-1.672507	O N N
-1.4934733	H N N
-1.9750849	M N N
-2.644908	Y N N
-1.3433832	A N N
-1.5602437	E N N
-2.4785752	U N N
-2.9205484	<s> M N
-2.2541285	I M N
-2.2481015	S M N
-1.9043996	O M N
-1.8836312	M M N
-1.9576175	A M N
-2.4930031	E M N
-1.9570282	F M N
-1.8608149	U M N
-0.89116883	X M N
-2.010248	S Y N
-1.4696096	O Y N
-0.17294645	M Y N
-0.92775977	Y Y N
-1.3651576	A Y N
-2.1325293	E Y N
-0.8803022	L Y N
-1.0176189	V Y N
-1.0435414	R Y N
-1.3088838	P Y N
-1.3391563	D Y N
-1.5108471	K Y N
-1.5365903	C Y N
-0.2656029	W Y N
-0.88524616	<s> A N
-1.2105262	I A N
-1.0173934	T A N
-0.8501792	S A N
-0.68434966	J A N
-0.5788337	O A N
-0.78932875	H A N
-2.0425136	N A N
-0.9417927	M A N
-0.7969447	Y A N
-1.3936875	A A N
-0.93930876	E A N
-1.1072117	L A N
-0.6940077	V A N
-1.0943227	R A N
-0.90309465	P A N
-1.2031378	B A N
-1.2758968	D A N
-0.84726906	F A N
-0.9886004	K A N
-1.1769964	Z A N
-1.0953218	U A N
-1.0899161	C A N
-0.9312132	G A N
-0.7574702	W A N
-0.498199	X A N
-0.9863727	<s> E N
-1.2331469	I E N
-0.93863636	T E N
-1.3156686	S E N
-0.63741016	J E N
-0.88779575	H E N
-1.5843205	N E N
-2.020627	M E N
-0.8544657	Y E N
-1.2599488	A E N
-0.55949944	E E N
-0.92170256	L E N
-0.49742314	V E N
-0.87038505	R E N
-0.8298567	P E N
-0.7722173	B E N
-0.8539957	D E N
-1.0886729	F E N
-0.712146	K E N
-0.936154	Z E N
-1.1950474	U E N
-0.9530593	C E N
-0.8991938	G E N
-0.91389805	W E N
-0.6648361	X E N
-2.5576305	I L N
-1.7465354	O L N
-2.849885	A L N
-2.4671535	E L N
-1.8362978	R L N
-1.7093076	K L N
-1.8168541	A V N
-1.5613154	E V N
-1.5568002	O R N
-1.7769921	A R N
-1.562292	E R N
-2.2187467	B R N
-1.9860958	U R N
-1.8638701	<s> P N
-1.8989762	O P N
-1.8372896	E P N
-1.7129194	L P N
-1.5440269	P P N
-2.866168	A B N
-2.4468305	I D N
-2.8474112	N D N
-1.1350267	Y D N
-1.9029485	A D N
-2.2684531	E D N
-2.1438644	R D N
-2.0466566	B D N
-2.2071471	U D N
-2.0631273	I F N
-1.9975069	A F N
-1.8430216	E F N
-1.2701162	L F N
-1.8210461	U F N
-2.7016625	M K N
-2.4102304	C K N
-1.8418124	O Z N
-2.44746	A Z N
-1.6087883	I U N
-0.80928826	T U N
-0.7887331	S U N
-1.0846078	J U N
-0.89860666	O U N
-0.8338141	H U N
-1.2657019	N U N
-0.8734584	M U N
-0.69785315	Y U N
-1.2199701	A U N
-1.445795	E U N
-1.2008268	L U N
-0.8201613	V U N
-0.990555	R U N
-0.9311263	P U N
-1.1222903	B U N
-1.2403185	D U N
-0.84433585	F U N
-0.9897327	K U N
-1.011233	Z U N
-0.90801626	G U N
-0.7389635	W U N
-2.4986377	I C N
-2.4540477	A C N
-1.3174953	I G N
-2.9893513	N G N
-1.3718241	A G N
-1.7784296	E G N
-1.3881518	O W N
-1.3905231	A W N
-1.8753645	D W N
-1.8176987	E X N
-2.9147613	<s> I M
-2.5210884	I I M
-1.4502288	T I M
-1.6355973	S I M
-1.3490816	J I M
-1.9483674	O I M
-1.6187664	H I M
-1.9452076	N I M
-1.7047777	M I M
-1.6122276	Y I M
-1.5249172	A I M
-3.3380914	E I M
-1.1131696	L I M
-1.5721556	R I M
-1.4486098	P I M
-1.9297116	B I M
-1.3911189	D I M
-1.2420397	F I M
-1.1350788	K I M
-1.1084976	Z I M
-2.024655	U I M
-1.535447	G I M
-1.2853632	W I M
-1.3989903	X I M
-2.0261164	S T M
-2.763178	E T M
-2.43273	U T M
-2.4536307	<s> S M
-0.54959714	I S M
-0.7862992	T S M
-2.678359	S S M
-1.7805719	O S M
-2.260972	N S M
-1.7772481	A S M
-1.9805316	E S M
-2.4115837	A J M
-1.0120318	D J M
-1.0084974	<s> O M
-1.8017914	I O M
-1.280427	T O M
-1.2956614	S O M
-2.0431514	J O M
-1.5970184	O O M
-1.1484528	H O M
-1.8942935	N O M
-1.852425	M O M
-1.10729	Y O M
-1.6580373	A O M
-1.8344721	E O M
-1.0441566	L O M
-1.3314005	R O M
-1.2101912	P O M
-1.7455122	B O M
-0.99967164	D O M
-1.2290174	K O M
-1.5346351	Z O M
-0.9468205	U O M
-1.8850694	C O M
-1.110611	G O M
-1.378068	W O M
-3.330316	T H M
-2.8543866	S H M
-0.7826701	H H M
-1.4472136	A H M
-1.806484	E H M
-2.7189217	C H M
-2.773125	S N M
-2.9066095	O N M
-2.4908671	N N M
-3.2825913	<s> M M
-1.9246995	I M M
-2.509165	S M M
-1.8038156	O M M
-1.321601	H M M
-2.3599842	M M M
-1.4060487	A M M
-1.4351215	E M M
-1.8614585	F M M
-2.2020874	U M M
-0.91896874	G M M
-2.0134866	T Y M
-1.6007792	A Y M
-1.8236719	L Y M
-1.5229447	P Y M
-1.089622	W Y M
-1.152371	<s> A M
-0.1234861	I A M
-1.2803061	T A M
-1.0931123	S A M
-0.88277984	J A M
-1.4548261	O A M
-0.89199865	H A M
-0.06740625	N A M
-1.525265	M A M
-0.9567577	Y A M
-1.3068858	A A M
-1.9958824	E A M
-1.3111238	L A M
-1.2029293	R A M
-1.1558797	P A M
-1.6729406	B A M
-1.2674625	D A M
-1.3455529	F A M
-1.303709	K A M
-1.5015835	Z A M
-1.1769922	U A M
-1.3150877	C A M
-1.6395532	G A M
-1.1132756	W A M
-0.3812114	Q A M
-0.9698802	<s> E M
-2.0904338	I E M
-1.1642247	T E M
-1.7286215	S E M
-1.0948362	J E M
-1.4746548	O E M
-1.2364455	H E M
-1.6308655	N E M
-2.9421475	M E M
-1.6607643	Y E M
-1.0789926	E E M
-1.0879593	L E M
-1.972144	V E M
-1.0729327	R E M
-1.5834129	P E M
-2.099659	B E M
-1.3667206	D E M
-1.4124651	F E M
-1.5400952	K E M
-1.4993219	Z E M
-1.7650155	U E M
-1.2966588	G E M
-1.3127354	W E M
-2.5376086	I L M
-2.3777869	O L M
-1.822314	Y L M
-1.7540636	A L M
-2.663217	E L M
-1.8798766	B L M
-2.4616494	U L M
-2.2158875	I R M
-1.6781219	O R M
-2.3860717	A R M
-1.9654438	E R M
-2.067637	E P M
-1.9354981	U P M
-2.297298	U B M
-2.6072261	I D M
-2.4268682	A D M
-2.4265697	E D M
-2.3624332	U D M
-0.7642834	L F M
-2.6886091	M K M
-2.7616973	A K M
-2.4688084	C K M
-2.0410342	A Z M
-1.509766	I U M
-1.0298874	T U M
-0.7605157	S U M
-0.88513243	J U M
-1.5941118	O U M
-0.7763207	H U M
-1.5878773	N U M
-1.810257	M U M
-1.1190633	Y U M
-1.436543	A U M
-1.3265905	E U M
-1.0895449	L U M
-0.74884534	V U M
-0.9034985	R U M
-1.0074929	P U M
-2.0536044	B U M
-1.2382782	D U M
-1.498387	F U M
-1.025138	K U M
-0.8158103	Z U M
-1.1831588	C U M
-1.2630788	G U M
-1.4842671	Q U M
-2.4864404	A C M
-2.3817656	I G M
-2.2293932	S G M
-2.983901	N G M
-2.6423082	A G M
-2.2538376	U G M
-1.1643821	I X M
-0.9687045	O X M
-1.107874	A X M
-1.6457369	E X M
-0.8705131	U Q M
-0.2506117	A 4 M
-2.5018525	S I Y
-2.049901	J I Y
-2.32942	O I Y
-2.4394178	H I Y
-2.2390637	N I Y
-1.7209344	M I Y
-2.256803	Y I Y
-1.9866918	A I Y
-2.8777037	E I Y
-1.8662595	L I Y
-1.7436979	R I Y
-1.9447417	P I Y
-1.8406088	B I Y
-1.9071128	D I Y
-2.0073981	K I Y
-1.9904275	Z I Y
-1.9009738	C I Y
-2.103302	W I Y
-2.2699559	I T Y
-1.080709	T T Y
-2.0446525	S T Y
-1.7283906	N T Y
-1.7648079	M T Y
-1.9787995	A T Y
-1.4315698	E T Y
-1.4377594	R T Y
-2.206304	U T Y
-2.2143822	<s> S Y
-2.3774905	I S Y
-2.5368788	T S Y
-1.850992	S S Y
-1.4665554	O S Y
-1.6527119	N S Y
-2.3014936	M S Y
-1.7878096	A S Y
-1.9529836	E S Y
-0.040184412	P S Y
-1.886209	F S Y
-1.8887955	U S Y
-1.7846515	D J Y
-1.6226838	<s> O Y
-2.2428195	T O Y
-2.3813775	S O Y
-1.2903174	J O Y
-1.7682081	H O Y
-1.8146694	M O Y
-1.9460226	Y O Y
-1.9710046	E O Y
-1.8656783	L O Y
-1.5719155	R O Y
-1.7723448	P O Y
-1.5363381	B O Y
-2.4004378	D O Y
-1.7511109	K O Y
-1.7053244	Z O Y
-1.7231506	G O Y
-2.098889	<s> H Y
-2.762838	T H Y
-2.2299373	S H Y
-1.7651241	O H Y
-1.9588193	M H Y
-2.4707825	A H Y
-1.5520322	P H Y
-1.9722284	U H Y
-2.794407	C H Y
-1.7890122	<s> N Y
-1.5470692	I N Y
-1.5987484	T N Y
-0.77487904	S N Y
-1.279052	O N Y
-1.1069031	N N Y
-0.73087734	M N Y
-1.2181592	A N Y
-1.4647589	E N Y
-1.4966865	L N Y
-1.5976207	R N Y
-0.8794812	F N Y
-1.1280966	U N Y
-1.1046941	W N Y
-0.06488691	<s> M Y
-0.21642162	S M Y
-1.7521076	O M Y
-1.7846034	M M Y
-2.7838223	A M Y
-1.8164977	E M Y
-2.3732622	F M Y
-2.2677157	U M Y
-2.0134866	T Y Y
-2.4753377	A Y Y
-2.367506	L Y Y
-2.4187489	R Y Y
-1.5229447	P Y Y
-2.1370428	<s> A Y
-2.006079	T A Y
-1.8178295	S A Y
-1.5917786	J A Y
-1.6023792	H A Y
-2.9927998	N A Y
-1.6440159	M A Y
-2.1500719	Y A Y
-1.7891407	A A Y
-1.7232893	L A Y
-2.168539	V A Y
-1.4519655	R A Y
-2.0627017	P A Y
-1.6191924	B A Y
-1.6977537	D A Y
-1.9942461	F A Y
-1.5513146	K A Y
-2.1626575	Z A Y
-1.7569344	U A Y
-1.6439569	G A Y
-1.7424955	W A Y
-1.3922495	X A Y
-2.0179353	<s> E Y
-1.784498	T E Y
-2.353667	S E Y
-1.9321454	J E Y
-1.4820311	O E Y
-1.7487497	H E Y
-1.6806824	N E Y
-2.9015596	M E Y
-1.6667583	Y E Y
-1.9286726	E E Y
-1.4012539	L E Y
-2.1481636	V E Y
-1.1634632	R E Y
-1.5876238	P E Y
-1.8354487	B E Y
-2.1370265	D E Y
-2.008357	F E Y
-1.9481449	K E Y
-1.7602566	Z E Y
-1.5541799	C E Y
-1.9306941	G E Y
-2.0251386	W E Y
-1.2074317	<s> L Y
-1.7461092	I L Y
-1.3011022	S L Y
-1.5400395	O L Y
-1.3086646	H L Y
-1.2711481	N L Y
-1.4931209	M L Y
-1.5553929	Y L Y
-1.4000255	A L Y
-1.7248193	E L Y
-0.90597886	L L Y
-1.0951457	R L Y
-1.2847382	D L Y
-1.3859363	F L Y
-1.5629078	K L Y
-1.7611241	U L Y
-1.4303628	G L Y
-1.9826403	O V Y
-1.958328	A V Y
-2.0600593	E V Y
-1.3921875	R V Y
-1.4866976	I R Y
-1.5985477	T R Y
-2.1721923	S R Y
-1.0583091	O R Y
-1.4246869	H R Y
-1.083874	N R Y
-1.5327603	M R Y
-1.1976483	A R Y
-1.2608213	E R Y
-0.4684052	R R Y
-1.5412385	B R Y
-1.8161806	D R Y
-2.0485127	F R Y
-1.1524338	K R Y
-1.327703	U R Y
-1.8292557	C R Y
-1.6963172	G R Y
-1.3341688	O P Y
-0.8201512	N P Y
-2.0041578	M P Y
-2.04875	A P Y
-1.7329766	E P Y
-1.6705198	L P Y
-0.43645138	P P Y
-1.6757015	U P Y
-1.6986233	<s> B Y
-1.7968373	I B Y
-1.8850255	S B Y
-1.3843956	O B Y
-2.2326472	M B Y
-1.1202607	Y B Y
-2.0893905	A B Y
-1.6618496	E B Y
-1.5188258	L B Y
-1.3480027	R B Y
-0.66672766	B B Y
-1.6050771	F B Y
-1.9099818	U B Y
-2.0629575	<s> D Y
-1.3999914	I D Y
-2.0736527	S D Y
-0.82724464	J D Y
-1.283279	O D Y
-1.5735588	N D Y
-1.9807446	M D Y
-1.3423581	A D Y
-1.115555	E D Y
-1.7282128	L D Y
-0.6446648	V D Y
-1.6960174	R D Y
-1.9147977	B D Y
-0.57178384	D D Y
-1.4262948	U D Y
-1.7001424	<s> F Y
-1.9668441	S F Y
-1.6036748	M F Y
-1.6380959	A F Y
-1.7264057	E F Y
-2.4580555	L F Y
-1.1214324	F F Y
-1.2345461	U F Y
-2.026441	<s> K Y
-2.0153527	I K Y
-1.8483942	S K Y
-1.759944	N K Y
-2.1369047	M K Y
-1.8071281	A K Y
-2.3067133	F K Y
-1.9186144	U K Y
-1.2920331	C K Y
-1.745155	I Z Y
-1.5333161	O Z Y
-2.0774467	N Z Y
-1.6878558	A Z Y
-1.8123018	E Z Y
-0.64729726	L Z Y
-1.0641491	Z Z Y
-1.5709071	U Z Y
-2.1099973	I U Y
-1.9086156	T U Y
-1.8595382	S U Y
-2.0236368	J U Y
-2.134963	H U Y
-2.044177	N U Y
-1.7289346	M U Y
-2.1851602	A U Y
-2.1256816	L U Y
-1.4966904	V U Y
-2.2110565	R U Y
-1.6230278	P U Y
-1.4576323	B U Y
-2.0769017	D U Y
-1.4910603	K U Y
-1.5383186	G U Y
-0.75516987	W U Y
-1.932134	<s> C Y
-1.8852192	I C Y
-2.4677563	S C Y
-1.3521384	O C Y
-1.4181378	N C Y
-1.632586	A C Y
-1.2365389	E C Y
-1.9887543	F C Y
-1.604785	U C Y
-1.8535614	<s> G Y
-2.2110085	I G Y
-0.6935214	S G Y
-2.802974	N G Y
-1.9530877	M G Y
-2.500279	A G Y
-2.100693	E G Y
-1.0186546	G G Y
-1.0924529	<s> W Y
-2.264174	S W Y
-2.077295	L W Y
-1.5135504	F W Y
-1.7189045	S X Y
-1.741326	E X Y
-0.77432454	U X Y
-0.30606788	<s> I A
-2.5839748	I I A
-1.1264598	T I A
-1.4182849	S I A
-1.5327752	J I A
-2.2109616	O I A
-1.9726347	H I A
-1.2663323	N I A
-1.3890415	M I A
-2.5561662	A I A
-3.0807545	E I A
-0.98847383	L I A
-1.0283477	V I A
-1.0821621	R I A
-1.4482757	P I A
-1.307638	B I A
-1.0855742	D I A
-1.5137371	F I A
-1.519552	K I A
-1.1816106	Z I A
-0.3169821	C I A
-1.6772022	G I A
-1.6508051	W I A
-1.1995815	X I A
-2.0238187	<s> T A
-1.3831578	I T A
-0.40259513	T T A
-0.61903197	S T A
-0.6817517	O T A
-0.62194115	H T A
-0.866644	N T A
-0.51011467	M T A
-0.92536557	Y T A
-0.81144387	A T A
-0.89420843	E T A
-0.6633979	L T A
-1.6709433	R T A
-0.6117295	P T A
-0.6186198	B T A
-0.9623428	D T A
-0.595502	F T A
-0.9377934	K T A
-0.6380278	U T A
-0.5305882	C T A
-0.7680428	G T A
-0.7318472	X T A
-0.49288547	<s> S A
-1.1000892	I S A
-0.90796494	T S A
-0.5201108	S S A
-1.1279688	O S A
-0.71473557	H S A
-0.9096382	N S A
-0.5975989	M S A
-3.1551864	Y S A
-0.8456623	A S A
-1.2371424	E S A
-1.2227503	L S A
-1.2481346	R S A
-1.1208187	B S A
-1.33369	D S A
-0.50712544	F S A
-1.2435342	K S A
-1.2390339	U S A
-0.6445792	X S A
-0.5001066	<s> J A
-0.24709198	I J A
-0.5158897	S J A
-0.5417972	J J A
-0.26984182	O J A
-0.41469395	N J A
-0.4700576	M J A
-0.44014734	Y J A
-0.61742413	A J A
-0.28297237	E J A
-0.44014734	L J A
-0.856441	R J A
-0.15841343	B J A
-0.85596097	D J A
-0.4483639	F J A
-0.96910053	U J A
-2.3979626	S O A
-1.1867101	J O A
-2.3157058	H O A
-1.9668148	N O A
-2.298003	M O A
-1.9591885	Y O A
-1.9238772	L O A
-2.2952023	R O A
-1.787456	B O A
-2.4162967	D O A
-1.8759735	F O A
-2.309272	K O A
-1.6155548	Z O A
-2.4752712	G O A
-1.6214108	W O A
-0.3792325	<s> H A
-0.49846452	I H A
-1.2464893	T H A
-0.36810872	S H A
-0.29700947	O H A
-0.44558045	H H A
-0.6451343	N H A
-0.44334683	M H A
-0.46365663	Y H A
-0.6779932	A H A
-0.9214669	E H A
-0.23913424	L H A
-0.53780794	R H A
-0.5052737	P H A
-0.23164523	B H A
-0.3869403	D H A
-0.33877072	F H A
-0.17090623	K H A
-0.3601764	U H A
-0.4941373	C H A
-0.81436473	G H A
-0.6106283	X H A
-0.04127076	<s> N A
-0.56869507	I N A
-0.3927711	T N A
-0.8646888	S N A
-0.20238711	J N A
-1.1193726	O N A
-0.4169334	H N A
-0.6346084	N N A
-0.91993505	M N A
-0.0085697025	Y N A
-0.9542021	A N A
-0.9611412	E N A
-0.9353491	L N A
-1.1090199	V N A
-0.40723822	R N A
-1.0080173	P N A
-1.079555	D N A
-0.9929835	F N A
-0.35321295	Z N A
-1.1173493	U N A
-0.3691001	G N A
-1.0344324	W N A
-1.2484109	<s> M A
-0.6217372	I M A
-0.8144773	T M A
-0.8063119	S M A
-0.49601662	J M A
-0.59442055	O M A
-0.3130442	H M A
-0.6772891	N M A
-0.3727967	M M A
-0.8444741	Y M A
-1.2610837	A M A
-0.5960864	E M A
-0.15246768	L M A
-0.34949067	R M A
-0.5142325	P M A
-0.20031732	B M A
-0.7060577	D M A
-0.42283577	F M A
-0.70743626	K M A
-0.6039197	Z M A
-0.510298	U M A
-0.6143176	G M A
-0.8824222	X M A
-0.20031732	Q M A
-1.0414903	<s> Y A
-0.24417716	I Y A
-1.5721612	T Y A
-0.80951315	S Y A
-0.19588348	J Y A
-0.63897514	O Y A
-0.98469687	H Y A
-0.29171327	N Y A
-2.7906718	M Y A
-0.7772813	Y Y A
-0.57995963	A Y A
-0.7827967	E Y A
-0.73793447	L Y A
-1.2456695	R Y A
-1.1180753	P Y A
-0.4657992	B Y A
-0.9618541	D Y A
-0.5416781	F Y A
-0.5258757	K Y A
-0.91179967	Z Y A
-0.30495426	U Y A
-0.8051944	C Y A
-1.3919271	G Y A
-0.9576411	W Y A
-2.4979665	<s> A A
-2.2406914	T A A
-2.15434	S A A
-2.1039157	J A A
-2.1951654	H A A
-3.2767253	N A A
-1.9810588	M A A
-2.5254083	Y A A
-1.8846692	A A A
-2.8858566	L A A
-2.5712736	R A A
-2.1158	P A A
-2.2524495	B A A
-2.3985944	D A A
-1.944988	F A A
-2.4229224	K A A
-2.663065	G A A
-2.8176343	W A A
-2.0296035	<s> E A
-1.6603262	T E A
-2.5297754	S E A
-1.937799	J E A
-1.0608734	O E A
-1.9286542	H E A
-2.1293488	N E A
-2.7922535	M E A
-2.0385368	Y E A
-1.9856339	E E A
-1.6230845	L E A
-2.300968	V E A
-1.5175985	R E A
-2.0425024	P E A
-1.4758155	B E A
-1.8449392	D E A
-2.062429	F E A
-1.9562093	K E A
-2.030992	C E A
-2.1125793	G E A
-2.17546	W E A
-0.58952427	<s> L A
-0.5783528	I L A
-1.0024832	T L A
-0.5766597	S L A
-0.5847266	O L A
-0.7853349	H L A
-0.60437536	N L A
-0.51846576	M L A
-0.79624337	Y L A
-0.7195051	A L A
-1.235251	E L A
-0.49250376	L L A
-0.88034594	R L A
-0.8807843	P L A
-0.22425346	B L A
-0.69134814	D L A
-0.66711384	F L A
-0.5541916	K L A
-0.57119375	U L A
-0.48646617	C L A
-0.67603976	G L A
-0.60413456	Q L A
-0.9016491	<s> V A
-0.5310406	I V A
-0.6679385	S V A
-0.7065273	O V A
-0.17943808	H V A
-0.74138135	N V A
-0.7322521	M V A
-0.63278896	A V A
-0.5107703	E V A
-0.572392	L V A
-0.29207605	V V A
-0.5815034	R V A
-0.56622374	D V A
-0.5931344	F V A
-0.17943808	K V A
-0.55669844	U V A
-0.6497172	<s> R A
-0.61310136	I R A
-0.79185885	T R A
-0.68867767	S R A
-0.7943978	O R A
-1.1614099	H R A
-0.6423327	N R A
-0.6384953	M R A
-0.46627426	Y R A
-0.8667873	A R A
-0.86580575	E R A
-0.4354337	L R A
-0.6541063	R R A
-0.8043141	P R A
-0.390142	B R A
-0.5538831	D R A
-0.6881656	F R A
-0.7394689	K R A
-0.62587994	Z R A
-0.64058656	U R A
-0.8980218	C R A
-0.47568676	G R A
-0.5047499	W R A
-0.34914765	Q R A
-0.8182008	<s> P A
-0.7242668	I P A
-0.5114893	T P A
-0.6748477	S P A
-0.7264705	J P A
-0.9110157	O P A
-0.5600259	M P A
-0.5513445	A P A
-1.0347958	E P A
-0.72105926	R P A
-0.89417696	P P A
-0.8856912	F P A
-0.52500486	U P A
-0.51680946	<s> B A
-0.4942752	I B A
-0.6203829	S B A
-0.5567293	O B A
-0.6712487	H B A
-0.50251824	N B A
-0.5183448	M B A
-0.892223	Y B A
-0.72201955	A B A
-0.6428725	E B A
-0.76262873	L B A
-0.5866655	R B A
-0.46777838	P B A
-0.45872203	B B A
-0.5036559	F B A
-0.5877595	K B A
-0.41741008	U B A
-0.8831354	<s> D A
-0.46513447	I D A
-0.92151403	S D A
-0.65103936	J D A
-0.9188618	O D A
-0.5956634	H D A
-0.51065636	N D A
-0.8240663	M D A
-0.6063887	Y D A
-0.79114896	A D A
-0.7380863	E D A
-0.58487767	L D A
-0.62245774	V D A
-0.9334639	R D A
-0.78079283	B D A
-0.7480999	D D A
-0.9509353	F D A
-0.35230592	K D A
-0.69946724	Z D A
-0.76392597	U D A
-0.22699481	G D A
-0.47970283	<s> F A
-0.39587718	I F A
-0.5926193	S F A
-0.8133118	J F A
-0.5598953	O F A
-0.30884355	H F A
-0.4459586	N F A
-0.65950805	M F A
-0.2470978	Y F A
-0.61131555	A F A
-0.6673418	E F A
-0.88452137	L F A
-0.89340794	R F A
-0.58102596	F F A
-0.6898906	U F A
-0.441504	<s> K A
-0.472287	I K A
-0.49785468	T K A
-0.4605328	S K A
-0.55288374	O K A
-0.5687275	N K A
-0.45209962	M K A
-0.48109055	A K A
-0.6157809	E K A
-0.4771434	L K A
-0.6221445	V K A
-0.581227	R K A
-0.30855522	B K A
-0.6754903	D K A
-0.47660774	F K A
-1.0382165	K K A
-0.47659093	U K A
-1.0405171	C K A
-0.26826173	<s> Z A
-0.41851246	I Z A
-0.28629678	S Z A
-0.447614	O Z A
-0.46602014	N Z A
-0.6491349	M Z A
-0.516327	A Z A
-0.55220485	E Z A
-0.5802767	R Z A
-0.9591893	D Z A
-0.51973677	F Z A
-0.60116744	Z Z A
-0.6726197	U Z A
-2.0199137	I U A
-1.7783186	T U A
-1.9150952	S U A
-1.5278451	J U A
-1.6276897	O U A
-1.6341223	H U A
-1.5140358	N U A
-2.1998973	M U A
-1.739834	Y U A
-1.6199609	E U A
-1.9584175	L U A
-1.5308635	V U A
-2.1270218	R U A
-2.2070863	B U A
-1.6585886	D U A
-1.9342457	F U A
-2.0835147	K U A
-1.6528568	Z U A
-1.9333894	G U A
-0.90878683	Q U A
-0.75232124	<s> C A
-0.96310544	I C A
-0.6964942	S C A
-1.0906682	O C A
-1.5683416	N C A
-0.8400663	M C A
-1.2327148	Y C A
-1.9879986	A C A
-1.1332445	E C A
-0.605696	L C A
-0.820857	R C A
-0.7866715	F C A
-1.1719537	U C A
-0.61519825	C C A
-0.9194128	<s> G A
-0.49175984	I G A
-0.85294306	S G A
-0.6247347	O G A
-0.46707302	N G A
-0.57379156	M G A
-0.87328506	Y G A
-0.5403152	A G A
-0.61083317	E G A
-0.771063	L G A
-0.8702752	R G A
-0.52433753	B G A
-0.5849879	D G A
-0.75944704	F G A
-0.39061138	U G A
-1.0760847	G G A
-0.47725528	<s> W A
-0.26062897	I W A
-0.13516197	T W A
-0.2603726	S W A
-0.1955897	J W A
-0.74693364	O W A
-0.2406316	H W A
-0.14874874	N W A
-0.13036895	M W A
-0.43738538	Y W A
-0.25773308	A W A
-0.2826013	E W A
-0.16523816	L W A
-0.2874042	R W A
-0.23143907	P W A
-0.20221743	B W A
-0.43580508	D W A
-0.42343253	F W A
-0.27358714	K W A
-0.23702906	Z W A
-0.16537015	U W A
-0.18713932	G W A
-0.19307753	<s> X A
-1.0021003	I X A
-1.5422453	S X A
-0.7872852	O X A
-1.041585	A X A
-0.6576792	E X A
-0.59789443	U X A
-0.47213197	<s> Q A
-0.79227686	S Q A
-0.19837281	Y Q A
-0.6761606	F Q A
-1.6329539	T I E
-2.2720551	S I E
-1.979072	J I E
-2.43291	H I E
-1.5120982	N I E
-1.7150592	M I E
-2.8023689	A I E
-1.5710635	L I E
-1.865424	V I E
-1.4395258	R I E
-1.9167172	P I E
-1.6342447	B I E
-1.7642652	D I E
-1.4464463	F I E
-1.8842945	K I E
-1.5890235	Z I E
-1.240994	C I E
-1.7539047	G I E
-2.1534977	W I E
-1.2180233	X I E
-2.3127449	<s> T E
-1.6668237	I T E
-0.6967232	T T E
-0.7121605	S T E
-0.8987387	O T E
-1.2479694	H T E
-0.87427294	N T E
-0.6197528	M T E
-0.96548694	A T E
-1.0663536	E T E
-1.3756956	L T E
-0.6394208	P T E
-1.0983765	F T E
-0.8706545	U T E
-0.8496311	C T E
-0.96635973	<s> S E
-1.5099144	I S E
-1.3193026	T S E
-0.955185	S S E
-0.6578964	O S E
-0.78264225	H S E
-0.715274	N S E
-0.7703421	M S E
-0.010812272	Y S E
-1.1332597	A S E
-1.4179744	E S E
-1.284448	L S E
-1.1158729	R S E
-1.717094	P S E
-1.1011262	B S E
-1.3088617	D S E
-1.123213	F S E
-1.3403335	K S E
-1.2851826	U S E
-0.89541924	G S E
-0.36460692	2 S E
-0.36460692	3 S E
-0.5994819	<s> J E
-0.9719091	I J E
-0.56744176	S J E
-0.64726424	O J E
-0.48572755	H J E
-0.52664447	N J E
-0.60523355	M J E
-0.78507555	A J E
-0.9963561	E J E
-0.7412632	R J E
-1.038193	D J E
-0.73827755	F J E
-1.1074886	U J E
-2.5229142	S O E
-1.6100154	J O E
-2.4480762	H O E
-1.653044	N O E
-2.0881996	E O E
-2.643949	L O E
-2.5348396	D O E
-1.4811627	Z O E
-2.5571108	G O E
-0.582035	<s> H E
-0.92910093	I H E
-1.5188897	T H E
-0.74941003	S H E
-1.4726756	O H E
-0.8019371	M H E
-1.1023601	A H E
-0.50486374	E H E
-1.0664297	L H E
-0.676752	P H E
-1.5194061	D H E
-0.68989027	F H E
-1.2283801	K H E
-0.96405655	U H E
-0.80365884	C H E
-0.9974165	G H E
-0.60771	W H E
-2.123179	<s> N E
-0.84582335	I N E
-0.48612767	T N E
-1.2846179	S N E
-1.407359	O N E
-1.1565337	H N E
-0.59170926	N N E
-1.0606911	M N E
-2.24331	Y N E
-1.3404398	A N E
-0.9701644	E N E
-0.76222795	L N E
-0.23434234	V N E
-0.5541108	R N E
-0.17485407	P N E
-0.23574023	D N E
-1.1895412	F N E
-0.6390803	K N E
-1.425249	U N E
-0.46286762	G N E
-2.1905148	<s> M E
-1.1611267	I M E
-1.6795957	S M E
-0.8923228	O M E
-0.95171344	H M E
-1.2116381	M M E
-1.3022346	Y M E
-0.16515504	A M E
-0.8320265	E M E
-0.9593495	L M E
-1.3944185	R M E
-0.9848244	D M E
-1.27825	F M E
-1.5145917	U M E
-0.78453696	<s> Y E
-0.9628446	I Y E
-1.7156286	T Y E
-1.009726	S Y E
-1.0448802	O Y E
-1.0125823	H Y E
-1.0443221	N Y E
-3.3030646	M Y E
-1.1214708	A Y E
-1.0477668	E Y E
-1.3402021	L Y E
-1.1823502	P Y E
-1.3657393	B Y E
-1.9862843	D Y E
-1.0907329	K Y E
-0.93286264	Z Y E
-0.6837056	U Y E
-1.4658084	C Y E
-1.4337336	G Y E
-2.3717537	<s> A E
-2.063841	T A E
-2.6516526	S A E
-2.4014714	J A E
-1.9025651	H A E
-3.0431874	N A E
-1.9597708	M A E
-2.339539	Y A E
-1.8323697	A A E
-2.1999073	L A E
-2.0674727	V A E
-1.8392664	R A E
-2.0956738	P A E
-2.541252	B A E
-2.2625751	D A E
-2.3708255	F A E
-2.2215536	K A E
-1.5474362	Z A E
-1.7552222	U A E
-2.2341413	C A E
-1.9276993	G A E
-2.723073	W A E
-1.7510419	T E E
-2.946399	S E E
-1.9421599	H E E
-2.0212069	N E E
-3.1432843	M E E
-2.0417974	Y E E
-2.0234685	E E E
-1.5597436	L E E
-2.3380384	V E E
-1.3031257	R E E
-2.1250532	P E E
-2.3220081	B E E
-2.1666973	D E E
-1.5568126	K E E
-1.5278457	Z E E
-2.1615899	C E E
-2.1406987	G E E
-2.291107	W E E
-0.8732971	<s> L E
-0.7968592	I L E
-0.4466545	T L E
-0.873943	S L E
-0.6899489	O L E
-0.5390552	H L E
-0.45096695	N L E
-0.9048051	M L E
-0.48600435	Y L E
-0.8350028	A L E
-1.2238575	E L E
-0.76480025	L L E
-0.41818476	R L E
-0.7024132	P L E
-0.7446	B L E
-1.1718285	D L E
-0.72930044	F L E
-0.46956977	K L E
-0.74592805	U L E
-0.36577782	C L E
-0.67589825	G L E
-0.46136546	W L E
-0.32798344	<s> V E
-0.5581353	I V E
-0.29483137	S V E
-0.4486405	O V E
-0.75773984	N V E
-0.4506517	M V E
-0.47898078	Y V E
-0.57360286	A V E
-0.5886655	E V E
-0.76748705	L V E
-0.79942095	R V E
-0.39685106	D V E
-0.39554018	F V E
-0.49806374	U V E
-0.44251204	X V E
-0.5728829	<s> R E
-1.0071294	I R E
-0.86747634	T R E
-0.53076917	S R E
-0.96489775	O R E
-1.0617473	H R E
-0.6759281	M R E
-1.0418761	A R E
-0.89383984	E R E
-0.8152584	L R E
-0.35427654	V R E
-0.9093382	R R E
-1.0685124	P R E
-0.9639131	B R E
-0.72897434	D R E
-0.46746916	F R E
-1.0135055	K R E
-1.0463455	Z R E
-0.85871893	U R E
-0.4363494	C R E
-0.4898099	G R E
-0.60053855	W R E
-0.58498347	<s> P E
-0.7845235	I P E
-0.7147435	S P E
-0.71882576	J P E
-0.77562785	O P E
-0.91598433	N P E
-0.7065526	M P E
-1.1990317	A P E
-1.0644149	E P E
-0.8246387	R P E
-0.8861097	P P E
-0.49456066	F P E
-0.56780434	U P E
-0.17198172	X P E
-0.70787793	<s> B E
-0.6923246	I B E
-0.6169075	S B E
-0.6636213	O B E
-0.6626974	H B E
-0.74670345	M B E
-0.38016844	Y B E
-0.8483533	A B E
-0.47286487	E B E
-0.27906045	L B E
-0.58343357	R B E
-0.46418858	P B E
-1.2545301	B B E
-0.31310242	D B E
-0.803494	F B E
-0.31310242	Z B E
-0.7249846	U B E
-0.2247183	G B E
-0.5657687	<s> D E
-0.95688885	I D E
-0.55470145	S D E
-0.9042489	J D E
-0.74272776	O D E
-0.7066358	N D E
-0.53123105	M D E
-0.7292968	Y D E
-0.84344137	A D E
-1.0039206	E D E
-1.3146319	L D E
-1.4095542	R D E
-1.4116524	D D E
-0.48693994	F D E
-0.9762601	U D E
-0.80569655	<s> F E
-1.4591053	I F E
-0.7218224	S F E
-1.0441889	O F E
-0.97402424	M F E
-1.2887295	A F E
-1.2382772	E F E
-1.3538582	L F E
-0.94606775	R F E
-0.8559394	F F E
-1.3247929	U F E
-1.1563096	<s> K E
-1.1010408	I K E
-1.1705408	S K E
-0.99431807	O K E
-0.4839064	H K E
-1.6698054	N K E
-1.2051028	M K E
-1.1925168	A K E
-0.65714866	E K E
-0.63930744	V K E
-1.1558658	F K E
-0.7322697	K K E
-1.2451316	U K E
-1.5975049	C K E
-1.0803003	<s> Z E
-0.8035716	I Z E
-0.7798502	S Z E
-0.5575541	J Z E
-0.83987224	O Z E
-0.18609871	H Z E
-0.97843134	N Z E
-0.79316676	M Z E
-0.32629123	Y Z E
-1.0505223	A Z E
-0.6501453	E Z E
-0.59069985	L Z E
-0.7532103	D Z E
-0.18609871	K Z E
-1.0318244	Z Z E
-1.2729442	U Z E
-2.107635	T U E
-2.042975	S U E
-2.0922074	J U E
-1.7193804	O U E
-1.0118433	N U E
-1.8653127	M U E
-2.4146194	L U E
-2.2842896	R U E
-2.2606075	D U E
-2.0886784	F U E
-1.6233882	Z U E
-1.6584721	G U E
-0.92176163	Q U E
-1.5303929	<s> C E
-0.91871774	I C E
-1.4201515	S C E
-0.59746987	O C E
-0.31053692	N C E
-1.4602735	M C E
-0.44984698	Y C E
-1.0670114	A C E
-1.3361946	E C E
-0.74144244	L C E
-1.2078108	R C E
-1.7376454	F C E
-1.1714823	U C E
-0.83555174	C C E
-0.62924945	<s> G E
-1.1405463	I G E
-0.8651081	S G E
-0.8682937	O G E
-0.19320798	H G E
-0.871858	N G E
-0.9244833	M G E
-0.8526441	Y G E
-0.84217966	A G E
-0.52069163	E G E
-0.3869946	L G E
-0.3393588	R G E
-0.5772391	P G E
-0.64612925	B G E
-0.43689477	D G E
-0.58568287	F G E
-0.7739465	U G E
-0.9962406	G G E
-0.62669116	<s> W E
-0.6871691	I W E
-0.8597437	T W E
-0.604094	S W E
-0.88079923	J W E
-0.54605436	O W E
-0.7237525	H W E
-0.76930666	N W E
-0.93175817	M W E
-0.5375455	Y W E
-0.8529433	A W E
-0.7094155	E W E
-0.83857644	L W E
-0.49221277	R W E
-0.79052436	P W E
-0.62712854	B W E
-0.7952845	D W E
-0.42059892	F W E
-0.64297676	K W E
-0.6033673	Z W E
-0.8612208	U W E
-0.66210294	G W E
-0.19016363	X W E
-1.7157441	S X E
-1.3511094	A X E
-1.6751071	E X E
-1.3319014	S Q E
-0.147945	E 4 E
-3.0843964	<s> I L
-1.5800385	T I L
-1.6562204	S I L
-1.0655015	J I L
-2.2117274	O I L
-1.4761093	H I L
-1.586709	N I L
-0.75732243	M I L
-1.4920955	Y I L
-1.2611715	A I L
-2.8039846	E I L
-1.477422	L I L
-1.1135265	V I L
-1.856274	R I L
-0.717969	P I L
-0.7868139	B I L
-1.2639376	D I L
-1.1119646	F I L
-0.8959435	K I L
-0.9661535	Z I L
-1.9172436	U I L
-1.1073928	C I L
-0.879014	G I L
-0.57683384	W I L
-3.449396	<s> T L
-2.8514163	S T L
-2.6963656	A T L
-2.594897	E T L
-1.9268498	R T L
-1.4380766	I S L
-1.1662714	T S L
-2.3657699	S S L
-2.0601065	O S L
-1.7727503	N S L
-2.4455693	A S L
-2.5178752	E S L
-1.7134056	R S L
-1.5110921	D S L
-1.3599079	D J L
-0.86479115	<s> O L
-1.1627617	I O L
-1.280427	T O L
-1.1373597	S O L
-1.5420858	J O L
-1.5970184	O O L
-1.0237908	H O L
-1.316596	N O L
-1.0733013	M O L
-1.6370515	Y O L
-1.3069513	L O L
-1.4869552	V O L
-1.2535508	R O L
-0.69186467	P O L
-1.1861701	B O L
-0.9163918	D O L
-1.6312503	F O L
-0.87610424	K O L
-0.88874155	Z O L
-1.0764225	U O L
-0.72728986	C O L
-1.0540051	G O L
-1.2056446	W O L
-2.3270693	S H L
-1.7590477	O H L
-0.50772405	Y H L
-2.5401776	A H L
-2.285562	P H L
-1.781291	K H L
-2.0643935	C H L
-3.0646465	I N L
-2.544638	O N L
-2.6587155	A N L
-2.5863445	E N L
-2.6178927	<s> M L
-2.00358	I M L
-2.1119177	S M L
-1.5543549	H M L
-1.8933941	M M L
-1.809496	A M L
-2.4775407	E M L
-1.6958778	F M L
-2.24472	U M L
-1.8559712	T Y L
-1.3984252	S Y L
-0.59207034	H Y L
-3.6151314	M Y L
-1.1166583	A Y L
-2.1097996	E Y L
-2.0604033	L Y L
-1.3402678	R Y L
-2.0829475	D Y L
-1.346321	K Y L
-1.837568	U Y L
-1.3671757	C Y L
-0.6547814	X Y L
-0.7397104	<s> A L
-2.5432122	I A L
-1.1885355	T A L
-0.79122716	S A L
-1.2075638	J A L
-1.2421068	H A L
-2.2737403	N A L
-1.0976624	M A L
-1.543235	Y A L
-0.8465534	A A L
-1.5987277	E A L
-1.516182	L A L
-0.810304	V A L
-1.8049841	R A L
-0.94797707	P A L
-1.2407088	B A L
-1.1569942	D A L
-1.1086344	F A L
-1.1017693	K A L
-1.1971467	Z A L
-0.9228844	U A L
-1.0199231	C A L
-1.0950801	G A L
-1.1091409	W A L
-0.6124382	<s> E L
-0.6521921	I E L
-0.9985513	T E L
-0.12665813	S E L
-1.0416126	J E L
-0.36254686	O E L
-0.8497045	H E L
-1.0107396	N E L
-1.8665029	M E L
-1.1587269	Y E L
-0.25315434	A E L
-1.1128871	E E L
-1.3988731	L E L
-0.70942503	V E L
-1.5497849	R E L
-0.7763039	P E L
-0.7863384	B E L
-0.8908254	D E L
-0.55705166	F E L
-0.8056214	K E L
-1.1724658	Z E L
-0.23531845	U E L
-1.0536815	C E L
-0.79351014	G E L
-0.75297225	W E L
-1.0709674	I L L
-1.1010615	T L L
-1.1723137	O L L
-1.3927186	H L L
-1.7993729	Y L L
-1.0971327	A L L
-1.5321642	E L L
-1.7203997	R L L
-1.1105123	P L L
-2.1515062	F L L
-1.3044325	U L L
-2.1937773	A V L
-2.5650153	I R L
-2.4861572	O R L
-1.446329	A R L
-1.86253	E R L
-2.4795945	U R L
-1.7305217	<s> P L
-2.234746	S P L
-1.8588898	O P L
-1.5083438	M P L
-1.6495275	Y P L
-2.050518	A P L
-0.49957356	D P L
-1.734305	<s> B L
-2.1131575	I B L
-1.5841238	S B L
-1.8647287	O B L
-2.1944215	M B L
-1.7174166	A B L
-1.7574067	E B L
-0.84356403	D B L
-1.538062	F B L
-1.536146	O D L
-2.8796754	N D L
-1.7907991	A D L
-2.0692432	B D L
-1.6255412	D D L
-1.9798781	F D L
-2.1890278	U D L
-1.5183642	<s> F L
-1.7919191	S F L
-1.3772433	O F L
-1.5759798	M F L
-1.8648235	A F L
-1.3509051	E F L
-1.2050729	L F L
-0.94727415	D F L
-1.5052707	F F L
-1.8190123	<s> K L
-2.1093247	I K L
-2.197719	S K L
-2.0590699	O K L
-2.3700602	M K L
-1.9438443	A K L
-2.111397	E K L
-2.2788033	F K L
-2.19639	U K L
-1.3520219	C K L
-2.012823	E Z L
-1.05226	<s> U L
-1.9685873	I U L
-1.0116031	T U L
-1.0423927	S U L
-0.6623895	J U L
-1.5725578	O U L
-0.97270006	H U L
-1.0471846	N U L
-1.1701986	M U L
-1.4513892	Y U L
-0.65490943	A U L
-1.3163406	E U L
-1.3165518	L U L
-1.8794603	R U L
-1.001247	P U L
-0.85159886	B U L
-0.61434454	D U L
-0.7641341	F U L
-0.76445234	K U L
-1.0035183	Z U L
-1.361991	U U L
-0.82329077	C U L
-0.828434	G U L
-0.81797814	W U L
-1.4705931	Q U L
-1.3906662	<s> C L
-2.1345267	I C L
-0.76246095	T C L
-1.472625	S C L
-1.5350381	O C L
-1.871828	N C L
-1.3499789	M C L
-1.4321244	A C L
-1.7034813	E C L
-1.2978518	R C L
-1.4808496	F C L
-1.4476335	U C L
-1.405992	<s> G L
-2.0935545	S G L
-1.9255288	O G L
-2.497488	N G L
-1.6437718	M G L
-1.5446424	A G L
-1.5196351	F G L
-1.8885942	A W L
-1.0345049	I Q L
-1.1354059	A Q L
-0.8126552	C Q L
-2.2309837	T I V
-3.2313175	S I V
-2.0325828	J I V
-2.2939155	O I V
-3.1800401	H I V
-2.0422912	N I V
-2.0920172	A I V
-3.5599003	E I V
-1.8126974	L I V
-1.377278	V I V
-2.1815794	R I V
-1.7451369	D I V
-1.9365013	F I V
-2.0481012	K I V
-1.9226754	C I V
-2.0543208	G I V
-2.208707	W I V
-2.3248177	I S V
-1.9910033	T S V
-1.631498	<s> O V
-1.9833928	T O V
-2.3180707	S O V
-1.0641267	J O V
-2.2717574	H O V
-1.3047144	N O V
-2.2923756	M O V
-1.8046033	Y O V
-1.9804682	E O V
-1.3614702	L O V
-2.2896888	R O V
-1.9080511	D O V
-1.9470812	K O V
-1.8709884	C O V
-2.469534	G O V
-1.6172422	W O V
-3.1320782	S H V
-2.3799067	I N V
-3.0764165	O N V
-2.719581	I M V
-3.3342576	S M V
-1.9702965	O M V
-2.6744742	A M V
-2.5265713	F M V
-2.1228669	S Y V
-1.0446008	Y Y V
-2.5573378	L Y V
-2.1478648	<s> A V
-1.8334167	T A V
-1.8889705	S A V
-2.3252177	J A V
-2.0718117	H A V
-3.359406	N A V
-2.297114	M A V
-2.6125672	Y A V
-1.9086442	E A V
-1.8826288	L A V
-2.2374568	V A V
-1.8130964	R A V
-2.3227758	B A V
-1.8802294	D A V
-2.1898785	F A V
-2.139825	K A V
-2.2591293	Z A V
-1.8262606	C A V
-2.560237	G A V
-2.7474365	W A V
-0.97800964	X A V
-1.2893585	<s> E V
-2.2785668	I E V
-2.177833	T E V
-1.9583366	S E V
-1.7911891	J E V
-2.0713515	H E V
-1.664149	N E V
-3.1417704	M E V
-1.877281	A E V
-2.020443	E E V
-1.9011796	L E V
-1.8719712	V E V
-1.4857113	R E V
-2.12556	B E V
-1.3309635	D E V
-1.4922354	F E V
-1.5560238	K E V
-2.3418734	G E V
-0.21671277	4 E V
-2.7491117	I L V
-2.864986	S L V
-2.5816932	O L V
-1.9323779	Y L V
-1.8249626	A L V
-2.5827928	E L V
-2.045871	A V V
-2.2780647	E V V
-2.6385305	I R V
-2.6216238	O R V
-2.8146448	A R V
-1.9009594	E R V
-1.7545928	A D V
-2.1191895	L F V
-2.7529042	I K V
-2.0214908	S U V
-1.6002833	J U V
-2.5144794	M U V
-2.0003507	Y U V
-2.5294936	L U V
-2.4237216	R U V
-1.915564	D U V
-2.2177365	F U V
-1.7722441	E X V
-3.4773753	<s> I R
-2.5354807	I I R
-1.7389928	T I R
-2.0263128	S I R
-1.470954	J I R
-1.6932783	H I R
-2.5790415	N I R
-1.2207156	M I R
-1.6185833	Y I R
-1.6318358	A I R
-3.3574197	E I R
-2.7707171	L I R
-1.5126657	V I R
-2.4034412	R I R
-1.8121307	P I R
-1.253315	B I R
-1.6354014	D I R
-1.5253983	F I R
-1.2269665	K I R
-1.3847017	Z I R
-1.0403824	G I R
-1.1287545	W I R
-3.2190526	<s> T R
-2.3807354	I T R
-1.6818107	S T R
-1.3969015	O T R
-1.642808	N T R
-1.7105916	M T R
-1.4335014	A T R
-1.3126066	E T R
-1.7708826	R T R
-1.1245711	F T R
-1.4634831	C T R
-0.88675153	X T R
-1.8204325	I S R
-1.5853622	T S R
-2.9321764	A S R
-2.4418082	E S R
-2.7842731	U S R
-1.3415741	D J R
-1.0208467	U J R
-1.1032994	<s> O R
-1.1627617	I O R
-1.1911756	T O R
-1.4244092	S O R
-1.1944079	J O R
-1.5970184	O O R
-1.0237908	H O R
-0.8483604	N O R
-1.1525214	M O R
-1.5582751	Y O R
-1.7476381	E O R
-1.127497	L O R
-1.3099769	V O R
-1.8360546	R O R
-1.2732807	P O R
-1.3347062	B O R
-0.87690675	D O R
-0.50297	F O R
-1.0629745	K O R
-1.6180648	Z O R
-1.0956552	C O R
-1.1757165	G O R
-1.378068	W O R
-3.1218064	T H R
-2.7240067	S H R
-1.9996572	M H R
-2.4744744	A H R
-1.7780453	E H R
-1.3402703	P H R
-1.7616415	F H R
-1.2782005	K H R
-1.0712823	C H R
-0.66044664	X H R
-3.0291853	O N R
-3.4007494	A N R
-2.283329	E N R
-3.1024292	<s> M R
-2.4443173	I M R
-2.645297	S M R
-2.370025	O M R
-2.416691	M M R
-2.1168203	A M R
-2.5056648	E M R
-2.33349	F M R
-1.9294603	T Y R
-3.8099773	M Y R
-2.367506	L Y R
-1.3637235	B Y R
-1.8683302	K Y R
-1.3528574	<s> A R
-2.4241047	I A R
-1.3351244	T A R
-1.3888513	S A R
-1.382122	J A R
-0.99715894	H A R
-2.2729821	N A R
-1.119281	M A R
-1.7923697	Y A R
-1.0174605	A A R
-0.9634275	E A R
-1.5494286	L A R
-1.0037657	V A R
-1.7749373	R A R
-1.3342956	P A R
-1.009447	B A R
-1.3802981	D A R
-1.0890541	F A R
-1.1819885	K A R
-1.0838302	Z A R
-1.0306066	U A R
-0.7125073	C A R
-1.2247375	G A R
-1.487293	W A R
-1.3699528	X A R
-0.8854407	<s> E R
-1.5825806	I E R
-0.7021872	T E R
-1.5395983	S E R
-0.96470785	J E R
-0.6637523	H E R
-1.2500001	N E R
-1.9835217	M E R
-1.2983673	Y E R
-1.3827956	A E R
-1.4470959	E E R
-1.7518544	L E R
-0.6948019	V E R
-1.7894727	R E R
-0.87567604	P E R
-0.7655773	B E R
-1.0812576	D E R
-0.70404994	F E R
-0.9586721	K E R
-0.76706326	Z E R
-1.0032732	U E R
-1.7197711	C E R
-0.8997642	G E R
-1.173473	W E R
-2.6161458	A L R
-2.9990861	E L R
-2.6497464	L L R
-1.9506533	U L R
-2.1937773	A V R
-2.5236723	I R R
-1.6648859	O R R
-1.5329604	A R R
-1.6213888	E R R
-1.9719999	U R R
-1.9786183	G R R
-0.8375682	<s> P R
-1.8667588	I P R
-0.94379103	S P R
-1.4201819	M P R
-1.4990714	Y P R
-1.5194091	A P R
-1.3884705	E P R
-0.6750923	F P R
-1.288694	<s> B R
-1.333528	I B R
-1.2552618	S B R
-1.9640038	O B R
-1.6998678	M B R
-1.3738282	A B R
-1.4821944	E B R
-1.2801629	L B R
-0.6799356	R B R
-1.4334178	F B R
-2.1661716	<s> D R
-1.8826826	I D R
-2.1086175	S D R
-1.5742636	O D R
-1.434068	N D R
-2.037025	M D R
-1.3619192	A D R
-1.4764117	E D R
-1.6388183	L D R
-1.9078599	B D R
-1.5174689	D D R
-1.7200772	U D R
-0.7864873	<s> F R
-1.0886328	I F R
-0.65110296	T F R
-0.83298016	S F R
-0.73067605	J F R
-0.77948946	O F R
-0.5933947	N F R
-0.9423397	M F R
-0.8584005	Y F R
-0.94982046	A F R
-0.68527514	E F R
-1.4913996	L F R
-0.69073194	R F R
-0.8665525	D F R
-0.95699936	F F R
-1.5219833	U F R
-1.5504123	<s> K R
-2.1093247	I K R
-1.728679	S K R
-1.5809181	M K R
-1.8433504	A K R
-2.111397	E K R
-1.4874395	R K R
-1.4877317	F K R
-2.0649772	U K R
-2.0457628	C K R
-2.223236	I Z R
-2.230896	A Z R
-1.3468182	E Z R
-1.0796641	<s> U R
-1.6131027	I U R
-1.066071	T U R
-1.0774153	S U R
-1.2520823	J U R
-0.71187943	O U R
-1.0710473	H U R
-1.0535879	N U R
-1.3046277	M U R
-1.7288021	Y U R
-0.94066775	A U R
-1.4526732	E U R
-2.377992	L U R
-1.4608326	V U R
-1.57399	P U R
-0.8049518	B U R
-1.0824486	D U R
-0.8454426	F U R
-1.3274623	K U R
-0.6851777	Z U R
-1.1418695	G U R
-0.9888765	<s> C R
-1.3562496	S C R
-1.7293218	O C R
-1.3202131	M C R
-1.7913272	A C R
-1.8232346	E C R
-1.2075565	F C R
-0.9393775	<s> G R
-2.1587853	I G R
-1.156623	S G R
-0.8837998	O G R
-2.351251	N G R
-1.5817724	M G R
-1.2642357	A G R
-1.6817676	E G R
-1.2904639	R G R
-1.2616978	F G R
-0.9792832	G G R
-2.1255484	A W R
-0.9974517	I Q R
-3.5956721	<s> I P
-2.339674	T I P
-2.3511746	S I P
-2.0314088	J I P
-2.2929904	O I P
-2.2877398	H I P
-1.7978613	N I P
-2.5384772	M I P
-2.8573692	A I P
-3.558673	E I P
-1.6522496	L I P
-2.0526798	R I P
-1.2297403	P I P
-2.5208755	D I P
-1.6571085	K I P
-2.2891471	Z I P
-2.248836	W I P
-2.5229793	N T P
-2.8034177	E T P
-2.3455436	<s> S P
-2.0229132	I S P
-1.9022548	T S P
-2.3295033	S S P
-1.8171988	O S P
-2.1043262	N S P
-2.3378341	M S P
-1.9433157	A S P
-1.6218452	E S P
-1.4674152	L S P
-1.6394204	R S P
-2.0221362	F S P
-1.5037268	K S P
-2.2845948	M J P
-1.5641599	D J P
-1.5768685	<s> O P
-1.8435327	I O P
-1.0691272	T O P
-1.956162	S O P
-2.0974674	J O P
-1.632996	O O P
-1.5098059	H O P
-2.1882744	M O P
-2.003074	Y O P
-1.1925399	E O P
-2.20547	L O P
-1.938233	R O P
-1.1648917	P O P
-2.1864643	B O P
-2.3787184	D O P
-1.6903723	K O P
-1.660076	Z O P
-1.3629048	C O P
-2.3655596	G O P
-1.5639312	W O P
-2.0135505	E H P
-2.4734478	N N P
-3.3088446	A N P
-2.9291368	E N P
-2.3027558	U N P
-2.5293448	<s> M P
-1.9985996	I M P
-1.9853424	S M P
-1.9098482	O M P
-1.6069962	M M P
-1.285475	Y M P
-2.3147757	A M P
-2.4639397	E M P
-1.6011863	F M P
-1.7896616	U M P
-2.5563114	A Y P
-2.1804748	E Y P
-1.4586298	P Y P
-1.0667907	C Y P
-0.14377882	G Y P
-2.0682812	<s> A P
-3.2269425	I A P
-2.1473808	T A P
-2.2430124	S A P
-1.5975274	J A P
-1.6631899	O A P
-1.6798437	H A P
-3.5692663	N A P
-2.3349762	M A P
-2.5094461	Y A P
-2.1022534	L A P
-1.8458155	R A P
-1.6701844	P A P
-2.5974526	D A P
-2.3365016	F A P
-1.3431717	K A P
-2.3105342	Z A P
-2.1252053	C A P
-2.1774325	G A P
-2.4378326	W A P
-1.3823166	<s> E P
-1.8648448	T E P
-1.9501072	S E P
-1.4754584	J E P
-1.8084799	H E P
-2.3590355	N E P
-2.776333	M E P
-1.9917593	Y E P
-2.0675821	A E P
-2.4380786	L E P
-1.5368277	P E P
-2.1025426	D E P
-2.0909786	F E P
-1.8966084	K E P
-1.9276181	Z E P
-2.313759	G E P
-2.8629797	S L P
-2.236705	O L P
-1.8822284	A L P
-2.875948	E L P
-2.610219	U L P
-1.6758927	G L P
-2.5626845	O R P
-2.767948	A R P
-2.846994	E R P
-2.5020013	U R P
-2.0114794	G R P
-1.7658039	I P P
-1.9144853	O P P
-1.1892844	A P P
-1.1781312	E P P
-1.8494614	U P P
-2.6983917	I D P
-3.0749257	N D P
-1.9030069	L F P
-1.2261198	<s> U P
-1.4534707	T U P
-1.364476	S U P
-1.9630283	H U P
-1.9009066	Y U P
-2.2601526	A U P
-1.8705256	E U P
-1.5290084	L U P
-1.9563682	B U P
-1.9528797	F U P
-1.8348356	K U P
-1.8107638	Z U P
-2.172456	G U P
-1.2576497	E X P
-3.3862748	<s> I B
-2.6039832	I I B
-1.7721661	T I B
-2.2279084	S I B
-1.6307778	J I B
-2.2843487	O I B
-2.015289	H I B
-2.161531	N I B
-2.1302745	M I B
-2.009431	A I B
-3.483377	E I B
-1.4790778	L I B
-1.8613355	R I B
-1.8801134	B I B
-2.0891392	D I B
-1.5271772	F I B
-1.1643128	K I B
-1.3853629	Z I B
-1.7407817	U I B
-1.8068019	C I B
-1.9039679	G I B
-1.8164933	W I B
-2.6222494	N T B
-1.5015352	I S B
-1.2427584	T S B
-2.303594	O S B
-2.3913143	A S B
-2.7088428	E S B
-0.22124393	’ S B
-1.7259301	D J B
-1.0199091	<s> O B
-1.840652	I O B
-1.6358976	T O B
-1.5279096	S O B
-1.6847504	J O B
-1.5897698	H O B
-1.6048679	N O B
-1.8755742	M O B
-1.3488578	Y O B
-1.8492317	L O B
-1.3837619	R O B
-1.5733271	B O B
-2.1393209	D O B
-1.7635251	F O B
-1.3390682	K O B
-1.701728	Z O B
-1.1712289	U O B
-1.4401647	C O B
-1.5191498	G O B
-1.561063	W O B
-3.3155835	T H B
-0.40900517	J H B
-1.7347468	K H B
-3.1983216	I N B
-3.1120627	O N B
-2.5010998	N N B
-2.2241027	<s> M B
-0.87433815	I M B
-1.8647648	S M B
-0.72508824	O M B
-1.3523707	M M B
-1.3928263	A M B
-0.70042926	E M B
-1.405504	F M B
-0.7759869	K M B
-0.5237343	U M B
-2.0205243	S Y B
-1.8752877	O Y B
-1.5478373	H Y B
-2.7470853	N Y B
-2.2036042	L Y B
-2.1839492	R Y B
-1.7412314	B Y B
-0.91323704	<s> A B
-2.9787707	I A B
-1.5453643	T A B
-1.0046118	S A B
-1.5924941	J A B
-1.4791114	O A B
-1.6910576	H A B
-2.48531	N A B
-1.4209077	M A B
-1.7070674	Y A B
-1.3190118	A A B
-1.9636571	L A B
-1.6229613	R A B
-2.066809	P A B
-1.2655946	B A B
-1.572343	D A B
-1.0644122	F A B
-1.382189	K A B
-1.2186636	Z A B
-1.7065725	U A B
-1.7278831	G A B
-1.6566745	W A B
-2.0613484	<s> E B
-2.2268407	I E B
-2.0686014	T E B
-2.0608246	S E B
-2.2979045	J E B
-1.5073824	O E B
-1.4913073	H E B
-2.1451688	N E B
-3.3198967	M E B
-1.9523655	Y E B
-2.021546	A E B
-1.9587398	L E B
-1.8867177	R E B
-2.1237717	B E B
-1.7737417	D E B
-2.190161	K E B
-1.5246043	Z E B
-2.1354163	G E B
-1.7146537	W E B
-2.0451267	I L B
-2.8101106	S L B
-2.6147811	O L B
-1.7164334	A L B
-2.7428598	E L B
-2.5575984	I R B
-2.231268	O R B
-2.0056973	A R B
-2.2058346	E R B
-2.2674625	I P B
-2.2746108	M P B
-2.353767	I B B
-2.100588	O B B
-1.576106	A B B
-1.6952542	E B B
-2.1723537	U B B
-2.597586	I D B
-2.279038	O D B
-2.7930937	A D B
-1.2472948	L F B
-1.6907421	R K B
-2.281555	C K B
-2.102601	I Z B
-2.4402587	A Z B
-1.4343826	Z Z B
-2.0551083	T U B
-1.3994483	S U B
-1.8108413	J U B
-1.3907163	O U B
-1.335529	H U B
-2.0489676	N U B
-1.6826621	M U B
-1.8325653	Y U B
-1.2065485	L U B
-1.5664256	V U B
-1.6204988	R U B
-1.6131675	B U B
-1.5144427	D U B
-1.2040607	K U B
-1.4026825	Z U B
-1.40675	U U B
-1.6410806	G U B
-3.081367	N G B
-2.7330356	A G B
-2.7003543	<s> I D
-1.4681942	T I D
-2.0509458	S I D
-1.0944833	J I D
-2.22402	O I D
-2.0739534	H I D
-2.356085	N I D
-1.4418634	M I D
-1.9020689	Y I D
-1.4957291	A I D
-2.8074083	E I D
-1.8388537	L I D
-1.7355107	V I D
-1.306371	R I D
-1.5425982	P I D
-1.8758137	B I D
-1.7873726	D I D
-1.1146823	F I D
-1.3203921	K I D
-2.1933465	Z I D
-1.92553	U I D
-1.2731422	G I D
-1.8097416	W I D
-1.6559597	I S D
-1.3920016	T S D
-3.3981614	Y S D
-2.8341672	A S D
-1.9322836	E S D
-1.5554774	L S D
-1.6776162	R S D
-2.530937	U S D
-1.7066573	A J D
-1.7480328	D J D
-1.4127977	<s> O D
-1.8276178	I O D
-2.1822147	T O D
-1.582928	S O D
-2.0765715	J O D
-0.9591186	O O D
-1.6840421	H O D
-1.6599525	N O D
-1.4779052	M O D
-1.883684	Y O D
-1.1390033	E O D
-1.5698866	L O D
-0.83548474	V O D
-1.6334884	R O D
-2.2045977	B O D
-1.8797007	D O D
-1.3401495	F O D
-1.7329698	K O D
-1.09127	U O D
-1.9556928	C O D
-1.1662834	G O D
-3.0701904	S H D
-1.9717612	O H D
-2.3844562	A H D
-1.7883043	<s> N D
-1.1380904	I N D
-0.939419	S N D
-1.0793055	O N D
-1.3198454	H N D
-2.1522892	N N D
-0.79759216	M N D
-3.2260804	Y N D
-0.9528485	A N D
-0.95349294	E N D
-1.1554767	V N D
-1.3359182	D N D
-0.7220514	F N D
-0.7049968	U N D
-0.2104925	X N D
-3.0439677	<s> M D
-2.2435691	S M D
-2.101286	M M D
-2.0535462	A M D
-2.5751886	E M D
-2.1434114	F M D
-2.0390484	I Y D
-2.0641782	S Y D
-2.0018976	O Y D
-1.6017119	A Y D
-2.375059	L Y D
-0.99516267	<s> A D
-2.359509	I A D
-2.1111393	T A D
-1.1634312	S A D
-2.0515215	J A D
-1.5472453	O A D
-1.4317019	H A D
-2.4119115	N A D
-1.1893178	M A D
-2.5399954	Y A D
-1.6654727	A A D
-1.8618474	E A D
-1.6364058	L A D
-1.5170302	R A D
-2.0172307	P A D
-1.5034391	B A D
-1.4850028	D A D
-1.1270325	F A D
-1.5482166	K A D
-2.2253878	Z A D
-1.5709577	U A D
-1.6368115	C A D
-1.9547604	G A D
-1.9224904	W A D
-1.1715285	X A D
-1.0278828	Q A D
-1.2432321	<s> E D
-1.7354673	T E D
-1.9890336	S E D
-2.1712937	J E D
-1.3802006	H E D
-1.5136762	N E D
-2.167311	M E D
-1.9072855	Y E D
-1.5558072	A E D
-1.664401	E E D
-1.7349964	L E D
-1.3172007	V E D
-1.059757	R E D
-2.0625095	P E D
-1.5498029	B E D
-1.7979176	D E D
-1.2233866	F E D
-1.7639414	K E D
-1.5006497	Z E D
-2.1580954	C E D
-1.708204	G E D
-2.0191677	W E D
-0.76657426	X E D
-2.077399	I L D
-1.8496869	O L D
-1.5057428	A L D
-2.462435	E L D
-1.8156888	R L D
-2.2475505	F L D
-2.564578	U L D
-2.0602245	S V D
-2.3192284	E V D
-1.4361551	R V D
-2.5320218	I R D
-1.014699	O R D
-1.1304536	A R D
-1.9198234	E R D
-1.727075	U R D
-2.059019	G R D
-2.5288734	I B D
-2.8361468	S B D
-0.8916542	A B D
-1.5549896	I D D
-2.078272	O D D
-2.921768	N D D
-1.7983265	A D D
-1.5979575	E D D
-2.2282434	U D D
-1.4317027	L F D
-2.4443054	C K D
-2.113286	I Z D
-1.9875154	U Z D
-1.140769	I U D
-2.0975842	T U D
-1.9039471	S U D
-1.1950222	J U D
-1.2540361	O U D
-1.0741937	H U D
-1.97461	N U D
-1.4157249	M U D
-1.1974732	Y U D
-0.91737324	A U D
-1.4683895	E U D
-1.4544637	L U D
-1.1795218	R U D
-1.26775	B U D
-1.3903568	D U D
-1.9523164	F U D
-1.3075964	K U D
-1.4763799	U U D
-2.1495595	G U D
-2.5726354	A C D
-2.731549	N G D
-2.0397413	A G D
-0.9170379	I X D
-3.596773	<s> I F
-2.0086935	T I F
-2.6370509	S I F
-2.0325828	J I F
-2.8502967	H I F
-1.7134067	N I F
-2.5025923	M I F
-2.0920172	A I F
-3.1229994	E I F
-1.8306998	L I F
-1.6484361	R I F
-1.967117	P I F
-1.773891	D I F
-1.9817421	F I F
-2.0123248	K I F
-1.6005955	G I F
-2.1236138	W I F
-1.3729372	F T F
-2.224036	U T F
-2.142247	I S F
-2.0045476	T S F
-2.9292214	S S F
-2.8059444	E S F
-2.7333615	S J F
-1.3528609	D J F
-1.5900818	T O F
-1.963458	S O F
-1.7703255	J O F
-1.3579909	E O F
-2.115595	L O F
-2.1792457	R O F
-2.3993058	B O F
-2.6358354	D O F
-3.4974422	T H F
-2.828878	S H F
-1.3955632	N H F
-2.6932578	A H F
-3.0112386	I N F
-2.6201975	O N F
-2.178175	M N F
-2.9236617	A N F
-2.3753335	E N F
-1.9079058	R N F
-1.777116	G N F
-3.407253	<s> M F
-2.5816858	I M F
-3.2619998	S M F
-2.5172234	M M F
-2.5060296	A M F
-2.4339807	F M F
-2.464296	U M F
-0.9578889	P Y F
-2.332421	D Y F
-1.7965704	<s> A F
-1.9726655	T A F
-1.8632652	S A F
-1.6666226	J A F
-2.1161382	H A F
-3.1262136	N A F
-1.8556781	M A F
-2.0910494	E A F
-2.1766405	L A F
-2.0032485	R A F
-2.1263204	P A F
-2.5997877	B A F
-1.7318982	D A F
-1.832204	F A F
-2.29436	K A F
-2.214806	Z A F
-2.4543898	G A F
-2.2908723	W A F
-1.8485979	<s> E F
-2.3226793	I E F
-1.8098055	T E F
-2.0653594	S E F
-1.4438596	J E F
-2.5752413	N E F
-3.1624534	M E F
-2.014421	A E F
-1.8986759	E E F
-2.7600832	L E F
-2.2210493	R E F
-2.0310657	D E F
-1.5829766	F E F
-2.1617696	K E F
-1.9751612	Z E F
-2.314909	G E F
-2.8179848	I L F
-2.4880445	O L F
-1.6084595	A L F
-0.20900933	E L F
-2.4137144	A R F
-1.4504337	L R F
-2.612134	U R F
-1.8238875	O D F
-2.452476	E D F
-1.9402493	L D F
-1.7220874	D D F
-1.774121	I F F
-1.3929296	A F F
-1.1051898	E F F
-1.9505779	L F F
-1.7656723	U F F
-2.8299766	A K F
-1.2074584	<s> U F
-2.088463	T U F
-1.5473068	S U F
-2.2199821	H U F
-2.3596723	M U F
-1.6782192	A U F
-1.8369378	E U F
-1.5246376	L U F
-1.7700694	R U F
-1.6582079	P U F
-2.2880573	B U F
-2.2347097	D U F
-1.9263921	F U F
-1.8208764	K U F
-1.8783257	G U F
-3.3862748	<s> I K
-1.654949	T I K
-1.8896465	S I K
-1.9956248	J I K
-2.2350504	O I K
-1.9881034	H I K
-1.4436547	N I K
-1.4813436	M I K
-1.2903173	Y I K
-1.8983828	A I K
-3.3605156	E I K
-1.3584417	L I K
-1.5136595	V I K
-1.447357	R I K
-1.5483704	P I K
-1.3932278	B I K
-1.2751075	D I K
-1.2003984	F I K
-1.8328389	K I K
-1.493334	Z I K
-1.9039679	G I K
-1.6004235	W I K
-2.5578434	A T K
-2.3481984	E T K
